{"learner":{"attributes":{"scikit_learn":"{\"_estimator_type\": \"classifier\"}"},"feature_names":["bill_length_mm","bill_depth_mm","flipper_length_mm","body_mass_g","sex_Male","island_Dream","island_Torgersen"],"feature_types":["float","float","float","float","i","i","i"],"gradient_booster":{"model":{"gbtree_model_param":{"num_parallel_tree":"1","num_trees":"300"},"iteration_indptr":[0,3,6,9,12,15,18,21,24,27,30,33,36,39,42,45,48,51,54,57,60,63,66,69,72,75,78,81,84,87,90,93,96,99,102,105,108,111,114,117,120,123,126,129,132,135,138,141,144,147,150,153,156,159,162,165,168,171,174,177,180,183,186,189,192,195,198,201,204,207,210,213,216,219,222,225,228,231,234,237,240,243,246,249,252,255,258,261,264,267,270,273,276,279,282,285,288,291,294,297,300],"tree_info":[0,1,2,0,1,2,0,1,2,0,1,2,0,1,2,0,1,2,0,1,2,0,1,2,0,1,2,0,1,2,0,1,2,0,1,2,0,1,2,0,1,2,0,1,2,0,1,2,0,1,2,0,1,2,0,1,2,0,1,2,0,1,2,0,1,2,0,1,2,0,1,2,0,1,2,0,1,2,0,1,2,0,1,2,0,1,2,0,1,2,0,1,2,0,1,2,0,1,2,0,1,2,0,1,2,0,1,2,0,1,2,0,1,2,0,1,2,0,1,2,0,1,2,0,1,2,0,1,2,0,1,2,0,1,2,0,1,2,0,1,2,0,1,2,0,1,2,0,1,2,0,1,2,0,1,2,0,1,2,0,1,2,0,1,2,0,1,2,0,1,2,0,1,2,0,1,2,0,1,2,0,1,2,0,1,2,0,1,2,0,1,2,0,1,2,0,1,2,0,1,2,0,1,2,0,1,2,0,1,2,0,1,2,0,1,2,0,1,2,0,1,2,0,1,2,0,1,2,0,1,2,0,1,2,0,1,2,0,1,2,0,1,2,0,1,2,0,1,2,0,1,2,0,1,2,0,1,2,0,1,2,0,1,2,0,1,2,0,1,2,0,1,2,0,1,2,0,1,2,0,1,2,0,1,2,0,1,2,0,1,2,0,1,2,0,1,2,0,1,2],"trees":[{"base_weights":[2.3765141E-1,1.410596E0,-6.104929E-1,-7.663455E-9,4.346939E-1,-6.79803E-1,3.1034482E-1,-1.0000002E-1,-2.1620114E-1],"categories":[],"categories_nodes":[],"categories_segments":[],"categories_sizes":[],"default_left":[0,0,0,0,0,0,0,0,0],"id":0,"left_children":[1,3,5,-1,-1,7,-1,-1,-1],"loss_changes":[1.1946656E2,2.725235E0,8.671518E0,0E0,0E0,7.178898E-1,0E0,0E0,0E0],"parents":[2147483647,0,0,1,1,2,2,5,5],"right_children":[2,4,6,-1,-1,8,-1,-1,-1],"split_conditions":[4.24E1,1.6E1,1E0,-7.663455E-9,4.346939E-1,4.44E1,3.1034482E-1,-1.0000002E-1,-2.1620114E-1],"split_indices":[0,1,6,0,0,0,0,0,0],"split_type":[0,0,0,0,0,0,0,0,0],"sum_hessian":[1.1822221E2,4.9333332E1,6.8888885E1,1.3333333E0,4.7999996E1,6.6666664E1,2.222222E0,7.9999995E0,5.8666664E1],"tree_param":{"num_deleted":"0","num_feature":"7","num_nodes":"9","size_leaf_vector":"1"}},{"base_weights":[-2.9077357E-1,-2.220089E-1,4.6666664E-1,-6.648649E-1,1.3624454E0,-7.663455E-9,-2.1329483E-1,1.6363636E-1,4.302439E-1],"categories":[],"categories_nodes":[],"categories_segments":[],"categories_sizes":[],"default_left":[0,0,0,0,0,0,0,0,0],"id":1,"left_children":[1,-1,3,5,7,-1,-1,-1,-1],"loss_changes":[4.0914825E1,0E0,4.6517925E1,6.302757E-1,7.0824814E-1,0E0,0E0,0E0,0E0],"parents":[2147483647,0,0,2,2,3,3,4,4],"right_children":[2,-1,4,6,8,-1,-1,-1,-1],"split_conditions":[1E0,-2.220089E-1,4.24E1,1.69E1,4.44E1,-7.663455E-9,-2.1329483E-1,1.6363636E-1,4.302439E-1],"split_indices":[5,0,0,1,0,0,0,0,0],"split_type":[0,0,0,0,0,0,0,0,0],"sum_hessian":[1.1822221E2,7.422222E1,4.3999996E1,1.9555553E1,2.4444443E1,1.3333333E0,1.8222221E1,2.6666665E0,2.1777777E1],"tree_param":{"num_deleted":"0","num_feature":"7","num_nodes":"9","size_leaf_vector":"1"}},{"base_weights":[5.3122044E-2,-2.2197312E-1,1.3365617E0,4.3958873E-1,-1.6363637E-1],"categories":[],"categories_nodes":[],"categories_segments":[],"categories_sizes":[],"default_left":[0,0,0,0,0],"id":2,"left_children":[1,-1,3,-1,-1],"loss_changes":[1.2233441E2,0E0,1.1917175E1,0E0,0E0],"parents":[2147483647,0,0,2,2],"right_children":[2,-1,4,-1,-1],"split_conditions":[2.08E2,-2.2197312E-1,1.75E1,4.3958873E-1,-1.6363637E-1],"split_indices":[2,0,1,0,0],"split_type":[0,0,0,0,0],"sum_hessian":[1.1822221E2,7.333333E1,4.4888885E1,4.222222E1,2.6666665E0],"tree_param":{"num_deleted":"0","num_feature":"7","num_nodes":"5","size_leaf_vector":"1"}},{"base_weights":[1.8684192E-1,9.6199954E-1,-5.290019E-1,2.9605103E-1,-1.0132616E-2,-5.974789E-1,2.3326604E-1,-1.00256436E-1,-1.9781673E-1],"categories":[],"categories_nodes":[],"categories_segments":[],"categories_sizes":[],"default_left":[0,0,0,0,0,0,0,0,0],"id":3,"left_children":[1,3,5,-1,-1,7,-1,-1,-1],"loss_changes":[6.5147415E1,1.4253082E0,5.9406567E0,0E0,0E0,7.368603E-1,0E0,0E0,0E0],"parents":[2147483647,0,0,1,1,2,2,5,5],"right_children":[2,4,6,-1,-1,8,-1,-1,-1],"split_conditions":[4.24E1,2.07E2,1E0,2.9605103E-1,-1.0132616E-2,1.97E2,2.3326604E-1,-1.00256436E-1,-1.9781673E-1],"split_indices":[0,2,6,0,0,2,0,0,0],"split_type":[0,0,0,0,0,0,0,0,0],"sum_hessian":[1.154885E2,5.5282024E1,6.0206482E1,5.3945465E1,1.3365583E0,5.7723858E1,2.482621E0,1.2207188E1,4.551667E1],"tree_param":{"num_deleted":"0","num_feature":"7","num_nodes":"9","size_leaf_vector":"1"}},{"base_weights":[-2.4250546E-1,-1.9829313E-1,3.5828248E-1,-5.8151406E-1,9.3763E-1,1.37220705E-2,-1.8951397E-1,1.1919534E-1,2.9505244E-1],"categories":[],"categories_nodes":[],"categories_segments":[],"categories_sizes":[],"default_left":[0,0,0,0,0,0,0,0,0],"id":4,"left_children":[1,-1,3,5,7,-1,-1,-1,-1],"loss_changes":[2.7558735E1,0E0,2.5191158E1,5.918956E-1,3.1287956E-1,0E0,0E0,0E0,0E0],"parents":[2147483647,0,0,2,2,3,3,4,4],"right_children":[2,-1,4,6,8,-1,-1,-1,-1],"split_conditions":[1E0,-1.9829313E-1,4.24E1,1.69E1,4.44E1,1.37220705E-2,-1.8951397E-1,1.1919534E-1,2.9505244E-1],"split_indices":[5,0,0,1,0,0,0,0,0],"split_type":[0,0,0,0,0,0,0,0,0],"sum_hessian":[1.0767357E2,6.340759E1,4.426598E1,1.6880045E1,2.7385937E1,1.25739E0,1.5622655E1,2.8994198E0,2.4486517E1],"tree_param":{"num_deleted":"0","num_feature":"7","num_nodes":"9","size_leaf_vector":"1"}},{"base_weights":[4.034553E-2,-1.9873028E-1,9.233229E-1,3.0043256E-1,-1.4398116E-1],"categories":[],"categories_nodes":[],"categories_segments":[],"categories_sizes":[],"default_left":[0,0,0,0,0],"id":5,"left_children":[1,-1,3,-1,-1],"loss_changes":[7.11932E1,0E0,6.0522842E0,0E0,0E0],"parents":[2147483647,0,0,2,2],"right_children":[2,-1,4,-1,-1],"split_conditions":[2.08E2,-1.9873028E-1,1.75E1,3.0043256E-1,-1.4398116E-1],"split_indices":[2,0,1,0,0],"split_type":[0,0,0,0,0],"sum_hessian":[1.1274241E2,6.2916027E1,4.982638E1,4.7470085E1,2.356296E0],"tree_param":{"num_deleted":"0","num_feature":"7","num_nodes":"5","size_leaf_vector":"1"}},{"base_weights":[1.5972438E-1,7.099696E-1,-5.3805643E-1,-1.3830839E-1,7.6894677E-1,-5.74822E-1,-8.881628E-2,1.1549457E-1,2.3790409E-1,-8.4641285E-2,-1.7668328E-1,1.585243E-1,-1.3385752E-1],"categories":[],"categories_nodes":[],"categories_segments":[],"categories_sizes":[],"default_left":[0,0,0,0,0,0,0,0,0,0,0,0,0],"id":6,"left_children":[1,3,5,-1,7,9,11,-1,-1,-1,-1,-1,-1],"loss_changes":[4.0557377E1,4.4246407E0,7.2031116E-1,0E0,2.1665192E-1,1.1515617E-2,1.2759812E0,0E0,0E0,0E0,0E0,0E0,0E0],"parents":[2147483647,0,0,1,1,2,2,4,4,5,5,6,6],"right_children":[2,4,6,-1,8,10,12,-1,-1,-1,-1,-1,-1],"split_conditions":[4.33E1,1.48E1,1.97E1,-1.3830839E-1,1.68E1,4.44E1,4.94E1,1.1549457E-1,2.3790409E-1,-8.4641285E-2,-1.7668328E-1,1.585243E-1,-1.3385752E-1],"split_indices":[0,1,1,0,1,0,0,0,0,0,0,0,0],"split_type":[0,0,0,0,0,0,0,0,0,0,0,0,0],"sum_hessian":[1.0363685E2,5.7934383E1,4.5702465E1,2.4510727E0,5.548331E1,4.1986748E1,3.7157166E0,4.275046E0,5.1208267E1,2.898263E0,3.9088486E1,1.1870099E0,2.5287066E0],"tree_param":{"num_deleted":"0","num_feature":"7","num_nodes":"13","size_leaf_vector":"1"}},{"base_weights":[-2.1157154E-1,-1.8306948E-1,3.0459917E-1,-5.20843E-1,7.497778E-1,2.586399E-2,-1.7352502E-1,8.606917E-2,2.3841207E-1],"categories":[],"categories_nodes":[],"categories_segments":[],"categories_sizes":[],"default_left":[0,0,0,0,0,0,0,0,0],"id":7,"left_children":[1,-1,3,5,7,-1,-1,-1,-1],"loss_changes":[1.9517704E1,0E0,1.5679511E1,5.799737E-1,3.4263992E-1,0E0,0E0,0E0,0E0],"parents":[2147483647,0,0,2,2,3,3,4,4],"right_children":[2,-1,4,6,8,-1,-1,-1,-1],"split_conditions":[1E0,-1.8306948E-1,4.24E1,1.69E1,4.44E1,2.586399E-2,-1.7352502E-1,8.606917E-2,2.3841207E-1],"split_indices":[5,0,0,1,0,0,0,0,0],"split_type":[0,0,0,0,0,0,0,0,0],"sum_hessian":[9.294569E1,5.2339493E1,4.060619E1,1.4167361E1,2.643883E1,1.1841588E0,1.2983203E1,2.992654E0,2.3446177E1],"tree_param":{"num_deleted":"0","num_feature":"7","num_nodes":"9","size_leaf_vector":"1"}},{"base_weights":[3.1554632E-2,-1.835002E-1,7.384513E-1,2.4018657E-1,-1.3039002E-1],"categories":[],"categories_nodes":[],"categories_segments":[],"categories_sizes":[],"default_left":[0,0,0,0,0],"id":8,"left_children":[1,-1,3,-1,-1],"loss_changes":[4.6032093E1,0E0,3.8641071E0,0E0,0E0],"parents":[2147483647,0,0,2,2],"right_children":[2,-1,4,-1,-1],"split_conditions":[2.08E2,-1.835002E-1,1.75E1,2.4018657E-1,-1.3039002E-1],"split_indices":[2,0,1,0,0],"split_type":[0,0,0,0,0],"sum_hessian":[9.924469E1,5.2033184E1,4.721151E1,4.5136875E1,2.074634E0],"tree_param":{"num_deleted":"0","num_feature":"7","num_nodes":"5","size_leaf_vector":"1"}},{"base_weights":[1.412488E-1,6.6109073E-1,-4.2739943E-1,2.0761032E-1,2.087969E-1,-4.965243E-1,1.6848455E-1,1.65272E-1,-1.4211513E-1,-1.7362918E-1,-6.0084783E-2],"categories":[],"categories_nodes":[],"categories_segments":[],"categories_sizes":[],"default_left":[0,0,0,0,0,0,0,0,0,0,0],"id":9,"left_children":[1,3,5,7,-1,9,-1,-1,-1,-1,-1],"loss_changes":[2.6864147E1,6.051769E-1,3.2563348E0,1.3860363E0,0E0,8.8875675E-1,0E0,0E0,0E0,0E0,0E0],"parents":[2147483647,0,0,1,1,2,2,3,3,5,5],"right_children":[2,4,6,8,-1,10,-1,-1,-1,-1,-1],"split_conditions":[4.24E1,1.67E1,1E0,3.82E1,2.087969E-1,1.83E1,1.6848455E-1,1.65272E-1,-1.4211513E-1,-1.7362918E-1,-6.0084783E-2],"split_indices":[0,1,6,0,0,1,0,0,0,0,0],"split_type":[0,0,0,0,0,0,0,0,0,0,0],"sum_hessian":[8.892202E1,4.636965E1,4.255237E1,3.8100715E0,4.2559578E1,4.023799E1,2.3143802E0,2.6608078E0,1.1492637E0,3.0748281E1,9.489708E0],"tree_param":{"num_deleted":"0","num_feature":"7","num_nodes":"11","size_leaf_vector":"1"}},{"base_weights":[-1.892977E-1,-1.7249477E-1,2.7412078E-1,-4.7118154E-1,6.445265E-1,3.1013753E-2,-1.613096E-1,2.133095E-1,9.178621E-2],"categories":[],"categories_nodes":[],"categories_segments":[],"categories_sizes":[],"default_left":[0,0,0,0,0,0,0,0,0],"id":10,"left_children":[1,-1,3,5,7,-1,-1,-1,-1],"loss_changes":[1.4203141E1,0E0,1.0344668E1,5.39155E-1,3.390503E-1,0E0,0E0,0E0,0E0],"parents":[2147483647,0,0,2,2,3,3,4,4],"right_children":[2,-1,4,6,8,-1,-1,-1,-1],"split_conditions":[1E0,-1.7249477E-1,4.24E1,1.69E1,4.075E3,3.1013753E-2,-1.613096E-1,2.133095E-1,9.178621E-2],"split_indices":[5,0,0,1,3,0,0,0,0],"split_type":[0,0,0,0,0,0,0,0,0],"sum_hessian":[7.758363E1,4.221174E1,3.5371895E1,1.1652847E1,2.3719048E1,1.1515787E0,1.0501268E1,1.8905407E1,4.813641E0],"tree_param":{"num_deleted":"0","num_feature":"7","num_nodes":"9","size_leaf_vector":"1"}},{"base_weights":[2.5751019E-2,-1.7285682E-1,6.371053E-1,2.0786121E-1,-1.189683E-1],"categories":[],"categories_nodes":[],"categories_segments":[],"categories_sizes":[],"default_left":[0,0,0,0,0],"id":11,"left_children":[1,-1,3,-1,-1],"loss_changes":[3.143958E1,0E0,2.7168293E0,0E0,0E0],"parents":[2147483647,0,0,2,2],"right_children":[2,-1,4,-1,-1],"split_conditions":[2.08E2,-1.7285682E-1,1.75E1,2.0786121E-1,-1.189683E-1],"split_indices":[2,0,1,0,0],"split_type":[0,0,0,0,0],"sum_hessian":[8.343637E1,4.2070858E1,4.1365517E1,3.9560936E1,1.8045809E0],"tree_param":{"num_deleted":"0","num_feature":"7","num_nodes":"5","size_leaf_vector":"1"}},{"base_weights":[1.3070062E-1,5.4546875E-1,-4.5560837E-1,-1.0898873E-1,5.894354E-1,-5.0423014E-1,1.4310555E-3,7.2082125E-2,1.8479632E-1,-6.1142948E-2,-1.5635087E-1,1.5089422E-1,-1.13140956E-1],"categories":[],"categories_nodes":[],"categories_segments":[],"categories_sizes":[],"default_left":[0,0,0,0,0,0,0,0,0,0,0,0,0],"id":12,"left_children":[1,3,5,-1,7,9,11,-1,-1,-1,-1,-1,-1],"loss_changes":[1.8452826E1,1.9840889E0,7.0205975E-1,0E0,2.4726677E-1,3.896141E-2,9.5522374E-1,0E0,0E0,0E0,0E0,0E0,0E0],"parents":[2147483647,0,0,1,1,2,2,4,4,5,5,6,6],"right_children":[2,4,6,-1,8,10,12,-1,-1,-1,-1,-1,-1],"split_conditions":[4.33E1,1.48E1,1.97E1,-1.0898873E-1,1.68E1,4.44E1,1.97E2,7.2082125E-2,1.8479632E-1,-6.1142948E-2,-1.5635087E-1,1.5089422E-1,-1.13140956E-1],"split_indices":[0,1,1,0,1,0,2,0,0,0,0,0,0],"split_type":[0,0,0,0,0,0,0,0,0,0,0,0,0],"sum_hessian":[7.385868E1,4.329821E1,3.0560469E1,1.6629533E0,4.1635254E1,2.7528606E1,3.0318625E0,3.6526127E0,3.7982643E1,2.1649487E0,2.5363657E1,1.1627446E0,1.8691179E0],"tree_param":{"num_deleted":"0","num_feature":"7","num_nodes":"13","size_leaf_vector":"1"}},{"base_weights":[-1.7130953E-1,-1.6476458E-1,2.5066307E-1,-4.2772377E-1,5.657274E-1,3.3793774E-2,-1.5242273E-1,4.3229196E-2,1.8703806E-1],"categories":[],"categories_nodes":[],"categories_segments":[],"categories_sizes":[],"default_left":[0,0,0,0,0,0,0,0,0],"id":13,"left_children":[1,-1,3,5,7,-1,-1,-1,-1],"loss_changes":[1.04497385E1,0E0,6.918749E0,5.121182E-1,4.3988943E-1,0E0,0E0,0E0,0E0],"parents":[2147483647,0,0,2,2,3,3,4,4],"right_children":[2,-1,4,6,8,-1,-1,-1,-1],"split_conditions":[1E0,-1.6476458E-1,4.24E1,3.25E3,4.44E1,3.3793774E-2,-1.5242273E-1,4.3229196E-2,1.8703806E-1],"split_indices":[5,0,0,3,0,0,0,0,0],"split_type":[0,0,0,0,0,0,0,0,0],"sum_hessian":[6.3666332E1,3.342784E1,3.023849E1,9.47647E0,2.076202E1,1.1746955E0,8.301775E0,2.9215417E0,1.7840477E1],"tree_param":{"num_deleted":"0","num_feature":"7","num_nodes":"9","size_leaf_vector":"1"}},{"base_weights":[1.876631E-2,-1.6517037E-1,5.7121485E-1,1.8747067E-1,-1.0860961E-1],"categories":[],"categories_nodes":[],"categories_segments":[],"categories_sizes":[],"default_left":[0,0,0,0,0],"id":14,"left_children":[1,-1,3,-1,-1],"loss_changes":[2.2000309E1,0E0,2.004075E0,0E0,0E0],"parents":[2147483647,0,0,2,2],"right_children":[2,-1,4,-1,-1],"split_conditions":[2.08E2,-1.6517037E-1,1.75E1,1.8747067E-1,-1.0860961E-1],"split_indices":[2,0,1,0,0],"split_type":[0,0,0,0,0],"sum_hessian":[6.794721E1,3.3463894E1,3.4483315E1,3.2919914E1,1.5634022E0],"tree_param":{"num_deleted":"0","num_feature":"7","num_nodes":"5","size_leaf_vector":"1"}},{"base_weights":[1.20511405E-1,4.6551546E-1,-4.6898928E-1,-1.21218786E-1,5.3667206E-1,-1.4919192E-1,1.4876919E-2,9.699921E-2,1.802419E-1],"categories":[],"categories_nodes":[],"categories_segments":[],"categories_sizes":[],"default_left":[0,0,0,0,0,0,0,0,0],"id":15,"left_children":[1,3,5,-1,7,-1,-1,-1,-1],"loss_changes":[1.2747472E1,2.652484E0,3.6595488E-1,0E0,3.0946445E-1,0E0,0E0,0E0,0E0],"parents":[2147483647,0,0,1,1,2,2,4,4],"right_children":[2,4,6,-1,8,-1,-1,-1,-1],"split_conditions":[4.44E1,1.53E1,2E1,-1.21218786E-1,1.75E1,-1.4919192E-1,1.4876919E-2,9.699921E-2,1.802419E-1],"split_indices":[0,1,1,0,1,0,0,0,0],"split_type":[0,0,0,0,0,0,0,0,0],"sum_hessian":[6.060459E1,3.836303E1,2.224156E1,2.5478778E0,3.581515E1,2.112884E1,1.1127216E0,9.674512E0,2.6140638E1],"tree_param":{"num_deleted":"0","num_feature":"7","num_nodes":"9","size_leaf_vector":"1"}},{"base_weights":[-1.5626736E-1,-1.5877435E-1,2.362269E-1,-1.4437611E-1,4.8741826E-1,1.7390558E-1,3.5254955E-2],"categories":[],"categories_nodes":[],"categories_segments":[],"categories_sizes":[],"default_left":[0,0,0,0,0,0,0],"id":16,"left_children":[1,-1,3,-1,5,-1,-1],"loss_changes":[7.8137913E0,0E0,4.971372E0,0E0,6.1324453E-1,0E0,0E0],"parents":[2147483647,0,0,2,2,4,4],"right_children":[2,-1,4,-1,6,-1,-1],"split_conditions":[1E0,-1.5877435E-1,4.09E1,-1.4437611E-1,4.075E3,1.7390558E-1,3.5254955E-2],"split_indices":[5,0,0,0,3,0,0],"split_type":[0,0,0,0,0,0,0],"sum_hessian":[5.1521534E1,2.6238817E1,2.5282715E1,6.31869E0,1.8964025E1,1.4724151E1,4.239874E0],"tree_param":{"num_deleted":"0","num_feature":"7","num_nodes":"7","size_leaf_vector":"1"}},{"base_weights":[1.4122724E-2,-1.5917031E-1,5.268467E-1,1.7419119E-1,-9.977264E-2],"categories":[],"categories_nodes":[],"categories_segments":[],"categories_sizes":[],"default_left":[0,0,0,0,0],"id":17,"left_children":[1,-1,3,-1,-1],"loss_changes":[1.5770063E1,0E0,1.5371418E0,0E0,0E0],"parents":[2147483647,0,0,2,2],"right_children":[2,-1,4,-1,-1],"split_conditions":[2.08E2,-1.5917031E-1,1.75E1,1.7419119E-1,-9.977264E-2],"split_indices":[2,0,1,0,0],"split_type":[0,0,0,0,0],"sum_hessian":[5.4466797E1,2.6393236E1,2.807356E1,2.6725235E1,1.3483256E0],"tree_param":{"num_deleted":"0","num_feature":"7","num_nodes":"5","size_leaf_vector":"1"}},{"base_weights":[1.13395005E-1,4.2771634E-1,-4.418094E-1,-1.1051138E-1,4.929754E-1,-1.4200427E-1,1.2994893E-2,8.0537304E-2,1.6993842E-1],"categories":[],"categories_nodes":[],"categories_segments":[],"categories_sizes":[],"default_left":[0,0,0,0,0,0,0,0,0],"id":18,"left_children":[1,3,5,-1,7,-1,-1,-1,-1],"loss_changes":[8.995873E0,1.8820462E0,3.0714178E-1,0E0,3.540988E-1,0E0,0E0,0E0,0E0],"parents":[2147483647,0,0,1,1,2,2,4,4],"right_children":[2,4,6,-1,8,-1,-1,-1,-1],"split_conditions":[4.44E1,1.53E1,2E1,-1.1051138E-1,1.75E1,-1.4200427E-1,1.2994893E-2,8.0537304E-2,1.6993842E-1],"split_indices":[0,1,1,0,1,0,0,0,0],"split_type":[0,0,0,0,0,0,0,0,0],"sum_hessian":[4.9465725E1,3.1731178E1,1.7734547E1,2.0521767E0,2.9679E1,1.6674791E1,1.0597543E0,8.466116E0,2.1212885E1],"tree_param":{"num_deleted":"0","num_feature":"7","num_nodes":"9","size_leaf_vector":"1"}},{"base_weights":[-1.417399E-1,-1.5385765E-1,2.2146109E-1,-1.3635473E-1,4.4470218E-1,1.6280924E-1,2.644512E-2],"categories":[],"categories_nodes":[],"categories_segments":[],"categories_sizes":[],"default_left":[0,0,0,0,0,0,0],"id":19,"left_children":[1,-1,3,-1,5,-1,-1],"loss_changes":[5.882932E0,0E0,3.5719E0,0E0,5.5635047E-1,0E0,0E0],"parents":[2147483647,0,0,2,2,4,4],"right_children":[2,-1,4,-1,6,-1,-1],"split_conditions":[1E0,-1.5385765E-1,4.09E1,-1.3635473E-1,4.075E3,1.6280924E-1,2.644512E-2],"split_indices":[5,0,0,0,3,0,0],"split_type":[0,0,0,0,0,0,0],"sum_hessian":[4.1802296E1,2.0471972E1,2.1330322E1,5.0383005E0,1.629202E1,1.2370126E1,3.921896E0],"tree_param":{"num_deleted":"0","num_feature":"7","num_nodes":"7","size_leaf_vector":"1"}},{"base_weights":[7.7890814E-3,-1.5430246E-1,4.9228597E-1,1.644647E-1,-9.171407E-2],"categories":[],"categories_nodes":[],"categories_segments":[],"categories_sizes":[],"default_left":[0,0,0,0,0],"id":20,"left_children":[1,-1,3,-1,-1],"loss_changes":[1.1432957E1,0E0,1.2135005E0,0E0,0E0],"parents":[2147483647,0,0,2,2],"right_children":[2,-1,4,-1,-1],"split_conditions":[2.08E2,-1.5430246E-1,1.75E1,1.644647E-1,-9.171407E-2],"split_indices":[2,0,1,0,0],"split_type":[0,0,0,0,0],"sum_hessian":[4.319387E1,2.0759865E1,2.2434006E1,2.125716E1,1.1768456E0],"tree_param":{"num_deleted":"0","num_feature":"7","num_nodes":"5","size_leaf_vector":"1"}},{"base_weights":[1.0712921E-1,4.8128983E-1,-3.0133027E-1,4.3272603E-2,1.5915768E-1,-4.780359E-1,6.308854E-2,9.960509E-2,-9.055777E-2,-1.506927E-1,-3.6697168E-2,1.7863908E-1,-1.2597786E-1],"categories":[],"categories_nodes":[],"categories_segments":[],"categories_sizes":[],"default_left":[0,0,0,0,0,0,0,0,0,0,0,0,0],"id":21,"left_children":[1,3,5,7,-1,9,11,-1,-1,-1,-1,-1,-1],"loss_changes":[6.4664683E0,4.509101E-1,1.3431667E0,4.2999077E-1,0E0,5.812359E-2,2.1893888E0,0E0,0E0,0E0,0E0,0E0,0E0],"parents":[2147483647,0,0,1,1,2,2,3,3,5,5,6,6],"right_children":[2,4,6,8,-1,10,12,-1,-1,-1,-1,-1,-1],"split_conditions":[4.24E1,1.67E1,1.83E1,3.78E1,1.5915768E-1,1.8E1,4.6E1,9.960509E-2,-9.055777E-2,-1.506927E-1,-3.6697168E-2,1.7863908E-1,-1.2597786E-1],"split_indices":[0,1,1,0,0,1,0,0,0,0,0,0,0],"split_type":[0,0,0,0,0,0,0,0,0,0,0,0,0],"sum_hessian":[4.0362717E1,2.0972761E1,1.9389956E1,2.3091047E0,1.8663656E1,1.2848149E1,6.541807E0,1.2779473E0,1.0311573E0,1.1641625E1,1.206524E0,3.0011532E0,3.540654E0],"tree_param":{"num_deleted":"0","num_feature":"7","num_nodes":"13","size_leaf_vector":"1"}},{"base_weights":[-1.2752014E-1,-1.4955185E-1,2.0911951E-1,-1.2870373E-1,4.0868947E-1,1.537583E-1,1.9678582E-2],"categories":[],"categories_nodes":[],"categories_segments":[],"categories_sizes":[],"default_left":[0,0,0,0,0,0,0],"id":22,"left_children":[1,-1,3,-1,5,-1,-1],"loss_changes":[4.474716E0,0E0,2.6015441E0,0E0,5.016544E-1,0E0,0E0],"parents":[2147483647,0,0,2,2,4,4],"right_children":[2,-1,4,-1,6,-1,-1],"split_conditions":[1E0,-1.4955185E-1,4.09E1,-1.2870373E-1,4.075E3,1.537583E-1,1.9678582E-2],"split_indices":[5,0,0,0,3,0,0],"split_type":[0,0,0,0,0,0,0],"sum_hessian":[3.3994934E1,1.59437065E1,1.8051228E1,4.02654E0,1.4024687E1,1.0387153E1,3.6375337E0],"tree_param":{"num_deleted":"0","num_feature":"7","num_nodes":"7","size_leaf_vector":"1"}},{"base_weights":[8.949562E-4,-1.5009904E-1,4.639378E-1,1.569372E-1,-8.446838E-2],"categories":[],"categories_nodes":[],"categories_segments":[],"categories_sizes":[],"default_left":[0,0,0,0,0],"id":23,"left_children":[1,-1,3,-1,-1],"loss_changes":[8.37616E0,0E0,9.7498655E-1,0E0,0E0],"parents":[2147483647,0,0,2,2],"right_children":[2,-1,4,-1,-1],"split_conditions":[2.08E2,-1.5009904E-1,1.75E1,1.569372E-1,-8.446838E-2],"split_indices":[2,0,1,0,0],"split_type":[0,0,0,0,0],"sum_hessian":[3.40902E1,1.6331493E1,1.7758705E1,1.6728867E1,1.0298374E0],"tree_param":{"num_deleted":"0","num_feature":"7","num_nodes":"5","size_leaf_vector":"1"}},{"base_weights":[1.0360396E-1,3.754199E-1,-3.989923E-1,-1.0946958E-1,4.7737825E-1,-1.04324006E-1,-1.4081922E-1,1.0586006E-1,-1.3697697E-1,7.397205E-2,1.559115E-1,-9.6886046E-2,7.083696E-2],"categories":[],"categories_nodes":[],"categories_segments":[],"categories_sizes":[],"default_left":[0,0,0,0,0,0,0,0,0,0,0,0,0],"id":24,"left_children":[1,3,5,7,9,11,-1,-1,-1,-1,-1,-1,-1],"loss_changes":[4.7316747E0,1.1538546E0,2.0531297E-1,9.129521E-1,5.3536415E-2,3.4789693E-1,0E0,0E0,0E0,0E0,0E0,0E0,0E0],"parents":[2147483647,0,0,1,1,2,2,3,3,4,4,5,5],"right_children":[2,4,6,8,10,12,-1,-1,-1,-1,-1,-1,-1],"split_conditions":[4.44E1,1.68E1,4.6E1,3.96E1,1.75E1,1.75E1,-1.4081922E-1,1.0586006E-1,-1.3697697E-1,7.397205E-2,1.559115E-1,-9.6886046E-2,7.083696E-2],"split_indices":[0,1,0,0,1,1,0,0,0,0,0,0,0],"split_type":[0,0,0,0,0,0,0,0,0,0,0,0,0],"sum_hessian":[3.2538994E1,2.1282145E1,1.1256849E1,3.6847386E0,1.7597406E1,2.649518E0,8.607331E0,1.5730315E0,2.111707E0,3.7847757E0,1.3812631E1,1.6447026E0,1.0048156E0],"tree_param":{"num_deleted":"0","num_feature":"7","num_nodes":"13","size_leaf_vector":"1"}},{"base_weights":[-1.1582174E-1,-1.4507662E-1,1.9299065E-1,-1.6770886E-1,1.4815632E-1,7.197079E-2,-1.2627965E-1],"categories":[],"categories_nodes":[],"categories_segments":[],"categories_sizes":[],"default_left":[0,0,0,0,0,0,0],"id":25,"left_children":[1,-1,3,5,-1,-1,-1],"loss_changes":[3.3357532E0,0E0,1.8445057E0,9.400436E-1,0E0,0E0,0E0],"parents":[2147483647,0,0,2,2,3,3],"right_children":[2,-1,4,6,-1,-1,-1],"split_conditions":[1E0,-1.4507662E-1,4.44E1,1.75E1,1.4815632E-1,7.197079E-2,-1.2627965E-1],"split_indices":[5,0,0,1,0,0,0],"split_type":[0,0,0,0,0,0,0],"sum_hessian":[2.7549767E1,1.2316268E1,1.5233498E1,7.129117E0,8.104381E0,2.7519424E0,4.377175E0],"tree_param":{"num_deleted":"0","num_feature":"7","num_nodes":"7","size_leaf_vector":"1"}},{"base_weights":[-6.0822708E-3,-1.4572564E-1,4.3544167E-1,1.5022387E-1,-5.065542E-2],"categories":[],"categories_nodes":[],"categories_segments":[],"categories_sizes":[],"default_left":[0,0,0,0,0],"id":26,"left_children":[1,-1,3,-1,-1],"loss_changes":[6.0642905E0,0E0,6.732285E-1,0E0,0E0],"parents":[2147483647,0,0,2,2],"right_children":[2,-1,4,-1,-1],"split_conditions":[2.08E2,-1.4572564E-1,1.71E1,1.5022387E-1,-5.065542E-2],"split_indices":[2,0,1,0,0],"split_type":[0,0,0,0,0],"sum_hessian":[2.6635357E1,1.2718192E1,1.3917164E1,1.2714491E1,1.2026733E0],"tree_param":{"num_deleted":"0","num_feature":"7","num_nodes":"5","size_leaf_vector":"1"}},{"base_weights":[9.61559E-2,4.3365705E-1,-2.6063704E-1,1.8372238E-4,1.480527E-1,-4.4583282E-1,8.379919E-2,-1.409878E-1,-3.704993E-2,1.4529812E-1,-1.09267145E-1],"categories":[],"categories_nodes":[],"categories_segments":[],"categories_sizes":[],"default_left":[0,0,0,0,0,0,0,0,0,0,0],"id":27,"left_children":[1,3,5,-1,-1,7,9,-1,-1,-1,-1],"loss_changes":[3.426525E0,3.759315E-1,9.3043405E-1,0E0,0E0,1.399827E-2,1.2059478E0,0E0,0E0,0E0,0E0],"parents":[2147483647,0,0,1,1,2,2,5,5,6,6],"right_children":[2,4,6,-1,-1,8,10,-1,-1,-1,-1],"split_conditions":[4.24E1,1.67E1,1.83E1,1.8372238E-4,1.480527E-1,1.8E1,4.6E1,-1.409878E-1,-3.704993E-2,1.4529812E-1,-1.09267145E-1],"split_indices":[0,1,1,0,0,1,0,0,0,0,0],"split_type":[0,0,0,0,0,0,0,0,0,0,0],"sum_hessian":[2.6516624E1,1.3516002E1,1.3000622E1,1.7639059E0,1.1752096E1,8.263264E0,4.7373586E0,7.2617335E0,1.00153E0,2.4584754E0,2.2788832E0],"tree_param":{"num_deleted":"0","num_feature":"7","num_nodes":"11","size_leaf_vector":"1"}},{"base_weights":[-1.0283092E-1,-1.4070041E-1,1.8372945E-1,-1.1486136E-1,3.5405803E-1,1.395752E-1,8.086984E-3],"categories":[],"categories_nodes":[],"categories_segments":[],"categories_sizes":[],"default_left":[0,0,0,0,0,0,0],"id":28,"left_children":[1,-1,3,-1,5,-1,-1],"loss_changes":[2.5463347E0,0E0,1.4742436E0,0E0,3.942585E-1,0E0,0E0],"parents":[2147483647,0,0,2,2,4,4],"right_children":[2,-1,4,-1,6,-1,-1],"split_conditions":[1E0,-1.4070041E-1,4.09E1,-1.1486136E-1,4.075E3,1.395752E-1,8.086984E-3],"split_indices":[5,0,0,0,3,0,0],"split_type":[0,0,0,0,0,0,0],"sum_hessian":[2.244579E1,9.5745945E0,1.2871195E1,2.6865394E0,1.0184655E1,7.2856703E0,2.898985E0],"tree_param":{"num_deleted":"0","num_feature":"7","num_nodes":"7","size_leaf_vector":"1"}},{"base_weights":[-1.0715547E-2,-1.4152412E-1,4.1363937E-1,1.444324E-1,-4.4303596E-2],"categories":[],"categories_nodes":[],"categories_segments":[],"categories_sizes":[],"default_left":[0,0,0,0,0],"id":29,"left_children":[1,-1,3,-1,-1],"loss_changes":[4.48447E0,0E0,5.258658E-1,0E0,0E0],"parents":[2147483647,0,0,2,2],"right_children":[2,-1,4,-1,-1],"split_conditions":[2.08E2,-1.4152412E-1,1.71E1,1.444324E-1,-4.4303596E-2],"split_indices":[2,0,1,0,0],"split_type":[0,0,0,0,0],"sum_hessian":[2.092453E1,9.975345E0,1.0949185E1,9.896129E0,1.0530568E0],"tree_param":{"num_deleted":"0","num_feature":"7","num_nodes":"5","size_leaf_vector":"1"}},{"base_weights":[9.234237E-2,3.2690126E-1,-3.640262E-1,-9.916109E-2,4.246493E-1,-2.3678476E-2,-1.3008893E-1,8.925951E-2,-1.1979178E-1,1.4236437E-1,5.2370418E-2],"categories":[],"categories_nodes":[],"categories_segments":[],"categories_sizes":[],"default_left":[0,0,0,0,0,0,0,0,0,0,0],"id":30,"left_children":[1,3,5,7,9,-1,-1,-1,-1,-1,-1],"loss_changes":[2.5409076E0,6.8642914E-1,1.2758052E-1,5.5907935E-1,7.655358E-2,0E0,0E0,0E0,0E0,0E0,0E0],"parents":[2147483647,0,0,1,1,2,2,3,3,4,4],"right_children":[2,4,6,8,10,-1,-1,-1,-1,-1,-1],"split_conditions":[4.44E1,1.68E1,4.6E1,3.96E1,4.24E1,-2.3678476E-2,-1.3008893E-1,8.925951E-2,-1.1979178E-1,1.4236437E-1,5.2370418E-2],"split_indices":[0,1,0,0,0,0,0,0,0,0,0],"split_type":[0,0,0,0,0,0,0,0,0,0,0],"sum_hessian":[2.1625067E1,1.4471083E1,7.1539845E0,2.6977453E0,1.1773337E1,1.8225876E0,5.331397E0,1.1657343E0,1.5320112E0,9.0666895E0,2.7066474E0],"tree_param":{"num_deleted":"0","num_feature":"7","num_nodes":"11","size_leaf_vector":"1"}},{"base_weights":[-9.147541E-2,-1.360579E-1,1.7217027E-1,-1.0608787E-1,3.2156384E-1,1.2968083E-1,6.508538E-3],"categories":[],"categories_nodes":[],"categories_segments":[],"categories_sizes":[],"default_left":[0,0,0,0,0,0,0],"id":31,"left_children":[1,-1,3,-1,5,-1,-1],"loss_changes":[1.9348017E0,0E0,1.0547692E0,0E0,3.177209E-1,0E0,0E0],"parents":[2147483647,0,0,2,2,4,4],"right_children":[2,-1,4,-1,6,-1,-1],"split_conditions":[1E0,-1.360579E-1,4.09E1,-1.0608787E-1,4.075E3,1.2968083E-1,6.508538E-3],"split_indices":[5,0,0,0,3,0,0],"split_type":[0,0,0,0,0,0,0],"sum_hessian":[1.8451616E1,7.471367E0,1.098025E1,2.127025E0,8.853226E0,6.1436005E0,2.7096248E0],"tree_param":{"num_deleted":"0","num_feature":"7","num_nodes":"7","size_leaf_vector":"1"}},{"base_weights":[-1.771977E-2,-1.3702896E-1,3.853156E-1,1.3824236E-1,-2.2140918E-2],"categories":[],"categories_nodes":[],"categories_segments":[],"categories_sizes":[],"default_left":[0,0,0,0,0],"id":32,"left_children":[1,-1,3,-1,-1],"loss_changes":[3.2707393E0,0E0,3.688593E-1,0E0,0E0],"parents":[2147483647,0,0,2,2],"right_children":[2,-1,4,-1,-1],"split_conditions":[2.08E2,-1.3702896E-1,1.69E1,1.3824236E-1,-2.2140918E-2],"split_indices":[2,0,1,0,0],"split_type":[0,0,0,0,0],"sum_hessian":[1.6489351E1,7.828322E0,8.661029E0,7.434848E0,1.2261814E0],"tree_param":{"num_deleted":"0","num_feature":"7","num_nodes":"5","size_leaf_vector":"1"}},{"base_weights":[8.817299E-2,3.0943716E-1,-3.4290344E-1,-9.519979E-2,4.0394032E-1,-2.007985E-2,-1.2456713E-1,-4.9362844E-3,-3.9070383E-2,4.3954954E-2,1.365986E-1],"categories":[],"categories_nodes":[],"categories_segments":[],"categories_sizes":[],"default_left":[0,0,0,0,0,0,0,0,0,0,0],"id":33,"left_children":[1,3,5,7,9,-1,-1,-1,-1,-1,-1],"loss_changes":[1.9131685E0,5.372951E-1,1.0992801E-1,6.903682E-3,7.570636E-2,0E0,0E0,0E0,0E0,0E0,0E0],"parents":[2147483647,0,0,1,1,2,2,3,3,4,4],"right_children":[2,4,6,8,10,-1,-1,-1,-1,-1,-1],"split_conditions":[4.44E1,1.68E1,4.6E1,1.63E1,1.75E1,-2.007985E-2,-1.2456713E-1,-4.9362844E-3,-3.9070383E-2,4.3954954E-2,1.365986E-1],"split_indices":[0,1,0,1,1,0,0,0,0,0,0],"split_type":[0,0,0,0,0,0,0,0,0,0,0],"sum_hessian":[1.7945566E1,1.2045164E1,5.900401E0,2.2791388E0,9.766026E0,1.6249979E0,4.2754035E0,1.1543144E0,1.1248243E0,2.2659888E0,7.5000367E0],"tree_param":{"num_deleted":"0","num_feature":"7","num_nodes":"11","size_leaf_vector":"1"}},{"base_weights":[-8.27283E-2,-1.3127102E-1,1.578914E-1,-1.1494564E-1,1.3003336E-1,5.6074537E-2,-1.3056117E-1],"categories":[],"categories_nodes":[],"categories_segments":[],"categories_sizes":[],"default_left":[0,0,0,0,0,0,0],"id":34,"left_children":[1,-1,3,5,-1,-1,-1],"loss_changes":[1.4692268E0,0E0,8.397429E-1,6.6814065E-1,0E0,0E0,0E0],"parents":[2147483647,0,0,2,2,3,3],"right_children":[2,-1,4,6,-1,-1,-1],"split_conditions":[1E0,-1.3127102E-1,4.44E1,1E0,1.3003336E-1,5.6074537E-2,-1.3056117E-1],"split_indices":[5,0,0,4,0,0,0],"split_type":[0,0,0,0,0,0,0],"sum_hessian":[1.5398535E1,5.8916326E0,9.506902E0,5.069865E0,4.437037E0,2.8242333E0,2.2456317E0],"tree_param":{"num_deleted":"0","num_feature":"7","num_nodes":"7","size_leaf_vector":"1"}},{"base_weights":[-2.2074524E-2,-1.3245462E-1,3.5833576E-1,1.3264865E-1,-2.2842698E-2],"categories":[],"categories_nodes":[],"categories_segments":[],"categories_sizes":[],"default_left":[0,0,0,0,0],"id":35,"left_children":[1,-1,3,-1,-1],"loss_changes":[2.4269154E0,0E0,3.253311E-1,0E0,0E0],"parents":[2147483647,0,0,2,2],"right_children":[2,-1,4,-1,-1],"split_conditions":[2.08E2,-1.3245462E-1,1.69E1,1.3264865E-1,-2.2842698E-2],"split_indices":[2,0,1,0,0],"split_type":[0,0,0,0,0],"sum_hessian":[1.3218541E1,6.2103605E0,7.00818E0,5.8599086E0,1.1482719E0],"tree_param":{"num_deleted":"0","num_feature":"7","num_nodes":"5","size_leaf_vector":"1"}},{"base_weights":[7.878888E-2,1.326114E-1,-1.57269E-1,-3.8666785E-1,1.8505014E-1,-1.328864E-1,-2.3690682E-2,1.2698641E-1,-8.5596286E-2],"categories":[],"categories_nodes":[],"categories_segments":[],"categories_sizes":[],"default_left":[0,0,0,0,0,0,0,0,0],"id":36,"left_children":[1,-1,3,5,7,-1,-1,-1,-1],"loss_changes":[1.4599419E0,0E0,9.0126777E-1,8.019543E-2,6.716427E-1,0E0,0E0,0E0,0E0],"parents":[2147483647,0,0,2,2,3,3,4,4],"right_children":[2,-1,4,6,8,-1,-1,-1,-1],"split_conditions":[4.09E1,1.326114E-1,1.83E1,1.75E1,4.6E1,-1.328864E-1,-2.3690682E-2,1.2698641E-1,-8.5596286E-2],"split_indices":[0,0,1,1,0,0,0,0,0],"split_type":[0,0,0,0,0,0,0,0,0],"sum_hessian":[1.521526E1,5.6493616E0,9.565898E0,5.6500607E0,3.9158373E0,4.4047384E0,1.2453221E0,2.6657574E0,1.2500799E0],"tree_param":{"num_deleted":"0","num_feature":"7","num_nodes":"9","size_leaf_vector":"1"}},{"base_weights":[-7.1955636E-2,-1.2633105E-1,1.5218452E-1,-9.4089046E-2,2.865127E-1,1.2019437E-1,-5.929643E-4],"categories":[],"categories_nodes":[],"categories_segments":[],"categories_sizes":[],"default_left":[0,0,0,0,0,0,0],"id":37,"left_children":[1,-1,3,-1,5,-1,-1],"loss_changes":[1.1573601E0,0E0,6.6819507E-1,0E0,2.542143E-1,0E0,0E0],"parents":[2147483647,0,0,2,2,4,4],"right_children":[2,-1,4,-1,6,-1,-1],"split_conditions":[1E0,-1.2633105E-1,4.09E1,-9.4089046E-2,4.075E3,1.2019437E-1,-5.929643E-4],"split_indices":[5,0,0,0,3,0,0],"split_type":[0,0,0,0,0,0,0],"sum_hessian":[1.2970126E1,4.7274017E0,8.242724E0,1.5461789E0,6.696545E0,4.519653E0,2.1768923E0],"tree_param":{"num_deleted":"0","num_feature":"7","num_nodes":"7","size_leaf_vector":"1"}},{"base_weights":[-2.3202963E-2,-1.277179E-1,3.3931464E-1,1.2716933E-1,-1.964577E-2],"categories":[],"categories_nodes":[],"categories_segments":[],"categories_sizes":[],"default_left":[0,0,0,0,0],"id":38,"left_children":[1,-1,3,-1,-1],"loss_changes":[1.8572471E0,0E0,2.582665E-1,0E0,0E0],"parents":[2147483647,0,0,2,2],"right_children":[2,-1,4,-1,-1],"split_conditions":[2.08E2,-1.277179E-1,1.69E1,1.2716933E-1,-1.964577E-2],"split_indices":[2,0,1,0,0],"split_type":[0,0,0,0,0],"sum_hessian":[1.0737737E1,5.0054965E0,5.7322407E0,4.70248E0,1.0297606E0],"tree_param":{"num_deleted":"0","num_feature":"7","num_nodes":"5","size_leaf_vector":"1"}},{"base_weights":[7.656654E-2,2.6752096E-1,-3.0853325E-1,-2.684037E-2,3.5746217E-1,-1.5804362E-2,-1.1250227E-1,1.2784892E-1,3.5535242E-2],"categories":[],"categories_nodes":[],"categories_segments":[],"categories_sizes":[],"default_left":[0,0,0,0,0,0,0,0,0],"id":39,"left_children":[1,3,5,-1,7,-1,-1,-1,-1],"loss_changes":[1.0894135E0,3.430757E-1,6.533614E-2,0E0,7.988691E-2,0E0,0E0,0E0,0E0],"parents":[2147483647,0,0,1,1,2,2,4,4],"right_children":[2,4,6,-1,8,-1,-1,-1,-1],"split_conditions":[4.44E1,1.68E1,4.6E1,-2.684037E-2,4.24E1,-1.5804362E-2,-1.1250227E-1,1.2784892E-1,3.5535242E-2],"split_indices":[0,1,0,0,0,0,0,0,0],"split_type":[0,0,0,0,0,0,0,0,0],"sum_hessian":[1.2692171E1,8.688993E0,4.0031776E0,1.7496516E0,6.9393415E0,1.1952602E0,2.8079174E0,4.781837E0,2.1575046E0],"tree_param":{"num_deleted":"0","num_feature":"7","num_nodes":"9","size_leaf_vector":"1"}},{"base_weights":[-6.318656E-2,-1.2037863E-1,1.3971497E-1,-8.991786E-2,1.1851799E-1,5.2235123E-2,-1.14572E-1],"categories":[],"categories_nodes":[],"categories_segments":[],"categories_sizes":[],"default_left":[0,0,0,0,0,0,0],"id":40,"left_children":[1,-1,3,5,-1,-1,-1],"loss_changes":[8.7809485E-1,0E0,5.181381E-1,4.633948E-1,0E0,0E0,0E0],"parents":[2147483647,0,0,2,2,3,3],"right_children":[2,-1,4,6,-1,-1,-1],"split_conditions":[1E0,-1.2037863E-1,4.44E1,1E0,1.1851799E-1,5.2235123E-2,-1.14572E-1],"split_indices":[5,0,0,4,0,0,0],"split_type":[0,0,0,0,0,0,0],"sum_hessian":[1.0983672E1,3.75292E0,7.2307525E0,4.1481557E0,3.082597E0,2.3903418E0,1.7578139E0],"tree_param":{"num_deleted":"0","num_feature":"7","num_nodes":"7","size_leaf_vector":"1"}},{"base_weights":[-3.0194104E-2,-1.220152E-1,3.0739602E-1,1.20258436E-1,-1.8450335E-2],"categories":[],"categories_nodes":[],"categories_segments":[],"categories_sizes":[],"default_left":[0,0,0,0,0],"id":41,"left_children":[1,-1,3,-1,-1],"loss_changes":[1.3507214E0,0E0,2.1959102E-1,0E0,0E0],"parents":[2147483647,0,0,2,2],"right_children":[2,-1,4,-1,-1],"split_conditions":[2.08E2,-1.220152E-1,1.66E1,1.20258436E-1,-1.8450335E-2],"split_indices":[2,0,1,0,0],"split_type":[0,0,0,0,0],"sum_hessian":[8.642774E0,3.9889858E0,4.653788E0,3.6439042E0,1.009884E0],"tree_param":{"num_deleted":"0","num_feature":"7","num_nodes":"5","size_leaf_vector":"1"}},{"base_weights":[6.865554E-2,1.2183817E-1,-1.360385E-1,-3.5026488E-1,1.8015239E-1,-1.220734E-1,-1.8376138E-2,1.0867681E-1,-4.808359E-2],"categories":[],"categories_nodes":[],"categories_segments":[],"categories_sizes":[],"default_left":[0,0,0,0,0,0,0,0,0],"id":42,"left_children":[1,-1,3,5,7,-1,-1,-1,-1],"loss_changes":[8.7802625E-1,0E0,6.1603045E-1,6.030029E-2,3.0338553E-1,0E0,0E0,0E0,0E0],"parents":[2147483647,0,0,2,2,3,3,4,4],"right_children":[2,-1,4,6,8,-1,-1,-1,-1],"split_conditions":[4.09E1,1.2183817E-1,1.83E1,1.75E1,4.57E1,-1.220734E-1,-1.8376138E-2,1.0867681E-1,-4.808359E-2],"split_indices":[0,0,1,1,0,0,0,0,0],"split_type":[0,0,0,0,0,0,0,0,0],"sum_hessian":[1.0910768E1,3.7478135E0,7.1629543E0,4.2057204E0,2.9572337E0,3.1753964E0,1.0303241E0,1.8848683E0,1.0723654E0],"tree_param":{"num_deleted":"0","num_feature":"7","num_nodes":"9","size_leaf_vector":"1"}},{"base_weights":[-5.491614E-2,-1.14766434E-1,1.3394772E-1,-8.161095E-2,2.5123835E-1,1.259024E-1,1.2487296E-2],"categories":[],"categories_nodes":[],"categories_segments":[],"categories_sizes":[],"default_left":[0,0,0,0,0,0,0],"id":43,"left_children":[1,-1,3,-1,5,-1,-1],"loss_changes":[6.955734E-1,0E0,4.181437E-1,0E0,2.0211035E-1,0E0,0E0],"parents":[2147483647,0,0,2,2,4,4],"right_children":[2,-1,4,-1,6,-1,-1],"split_conditions":[1E0,-1.14766434E-1,4.09E1,-8.161095E-2,1E0,1.259024E-1,1.2487296E-2],"split_indices":[5,0,0,0,4,0,0],"split_type":[0,0,0,0,0,0,0],"sum_hessian":[9.412742E0,3.0668504E0,6.3458915E0,1.1266886E0,5.219203E0,2.3382003E0,2.8810024E0],"tree_param":{"num_deleted":"0","num_feature":"7","num_nodes":"7","size_leaf_vector":"1"}},{"base_weights":[-3.0205114E-2,-1.1644464E-1,2.8682995E-1,1.1261947E-1,-4.004386E-3],"categories":[],"categories_nodes":[],"categories_segments":[],"categories_sizes":[],"default_left":[0,0,0,0,0],"id":44,"left_children":[1,-1,3,-1,-1],"loss_changes":[1.0352167E0,0E0,1.3508216E-1,0E0,0E0],"parents":[2147483647,0,0,2,2],"right_children":[2,-1,4,-1,-1],"split_conditions":[2.08E2,-1.1644464E-1,1.63E1,1.1261947E-1,-4.004386E-3],"split_indices":[2,0,1,0,0],"split_type":[0,0,0,0,0],"sum_hessian":[7.1413317E0,3.2489007E0,3.8924313E0,2.8121214E0,1.0803099E0],"tree_param":{"num_deleted":"0","num_feature":"7","num_nodes":"5","size_leaf_vector":"1"}},{"base_weights":[6.658448E-2,2.3670305E-1,-2.743624E-1,-6.1915377E-3,3.6915863E-1,-1.6286284E-2,-9.948784E-2,8.811398E-2,-9.169147E-2,3.434905E-2,1.2306049E-1],"categories":[],"categories_nodes":[],"categories_segments":[],"categories_sizes":[],"default_left":[0,0,0,0,0,0,0,0,0,0,0],"id":45,"left_children":[1,3,5,7,9,-1,-1,-1,-1,-1,-1],"loss_changes":[6.6368836E-1,2.4112299E-1,3.1137764E-2,4.1335556E-1,3.4165978E-3,0E0,0E0,0E0,0E0,0E0,0E0],"parents":[2147483647,0,0,1,1,2,2,3,3,4,4],"right_children":[2,4,6,8,10,-1,-1,-1,-1,-1,-1],"split_conditions":[4.44E1,1.75E1,4.62E1,4.08E1,3.525E3,-1.6286284E-2,-9.948784E-2,8.811398E-2,-9.169147E-2,3.434905E-2,1.2306049E-1],"split_indices":[0,1,0,0,3,0,0,0,0,0,0],"split_type":[0,0,0,0,0,0,0,0,0,0,0],"sum_hessian":[9.322958E0,6.423594E0,2.8993635E0,2.603182E0,3.820412E0,1.0008699E0,1.8984938E0,1.3101623E0,1.2930198E0,1.0562593E0,2.7641528E0],"tree_param":{"num_deleted":"0","num_feature":"7","num_nodes":"11","size_leaf_vector":"1"}},{"base_weights":[-4.6530243E-2,-1.08584255E-1,1.2653568E-1,-7.792773E-2,1.0816626E-1,4.8221063E-2,-1.02524124E-1],"categories":[],"categories_nodes":[],"categories_segments":[],"categories_sizes":[],"default_left":[0,0,0,0,0,0,0],"id":46,"left_children":[1,-1,3,5,-1,-1,-1],"loss_changes":[5.4638386E-1,0E0,3.46874E-1,3.3058497E-1,0E0,0E0,0E0],"parents":[2147483647,0,0,2,2,3,3],"right_children":[2,-1,4,6,-1,-1,-1],"split_conditions":[1E0,-1.08584255E-1,4.44E1,1E0,1.0816626E-1,4.8221063E-2,-1.02524124E-1],"split_indices":[5,0,0,4,0,0,0],"split_type":[0,0,0,0,0,0,0],"sum_hessian":[8.170234E0,2.5079832E0,5.662251E0,3.3779323E0,2.2843187E0,1.9786628E0,1.3992695E0],"tree_param":{"num_deleted":"0","num_feature":"7","num_nodes":"7","size_leaf_vector":"1"}},{"base_weights":[-3.7624694E-2,9.638441E-2,-3.1310138E-1,-2.2349063E-2,-1.08636186E-1],"categories":[],"categories_nodes":[],"categories_segments":[],"categories_sizes":[],"default_left":[0,0,0,0,0],"id":47,"left_children":[1,-1,3,-1,-1],"loss_changes":[7.855401E-1,0E0,2.4788857E-2,0E0,0E0],"parents":[2147483647,0,0,2,2],"right_children":[2,-1,4,-1,-1],"split_conditions":[1.65E1,9.638441E-2,1.76E1,-2.2349063E-2,-1.08636186E-1],"split_indices":[1,0,1,0,0],"split_type":[0,0,0,0,0],"sum_hessian":[5.92773E0,2.5018756E0,3.4258544E0,1.0132987E0,2.4125555E0],"tree_param":{"num_deleted":"0","num_feature":"7","num_nodes":"5","size_leaf_vector":"1"}},{"base_weights":[6.297911E-2,1.1116823E-1,-1.1968731E-1,-9.3622975E-2,1.5917876E-1,9.570509E-2,-2.6219489E-2],"categories":[],"categories_nodes":[],"categories_segments":[],"categories_sizes":[],"default_left":[0,0,0,0,0,0,0],"id":48,"left_children":[1,-1,3,-1,5,-1,-1],"loss_changes":[5.5673575E-1,0E0,3.9720002E-1,0E0,1.5820503E-1,0E0,0E0],"parents":[2147483647,0,0,2,2,4,4],"right_children":[2,-1,4,-1,6,-1,-1],"split_conditions":[4.09E1,1.1116823E-1,1.83E1,-9.3622975E-2,4.44E1,9.570509E-2,-2.6219489E-2],"split_indices":[0,0,1,0,0,0,0],"split_type":[0,0,0,0,0,0,0],"sum_hessian":[8.11962E0,2.6421068E0,5.477514E0,3.1708548E0,2.306659E0,1.2212368E0,1.0854222E0],"tree_param":{"num_deleted":"0","num_feature":"7","num_nodes":"7","size_leaf_vector":"1"}},{"base_weights":[-4.2971425E-2,-1.0270269E-1,1.1975753E-1,-6.4554095E-2,1.01154305E-1,4.357903E-2,-9.3138486E-2],"categories":[],"categories_nodes":[],"categories_segments":[],"categories_sizes":[],"default_left":[0,0,0,0,0,0,0],"id":49,"left_children":[1,-1,3,5,-1,-1,-1],"loss_changes":[4.3356085E-1,0E0,2.6065746E-1,2.5486788E-1,0E0,0E0,0E0],"parents":[2147483647,0,0,2,2,3,3],"right_children":[2,-1,4,6,-1,-1,-1],"split_conditions":[1E0,-1.0270269E-1,4.44E1,1E0,1.01154305E-1,4.357903E-2,-9.3138486E-2],"split_indices":[5,0,0,4,0,0,0],"split_type":[0,0,0,0,0,0,0],"sum_hessian":[7.0581393E0,2.096842E0,4.9612975E0,3.0656319E0,1.8956656E0,1.8750472E0,1.1905845E0],"tree_param":{"num_deleted":"0","num_feature":"7","num_nodes":"7","size_leaf_vector":"1"}},{"base_weights":[-3.775285E-2,-1.0560993E-1,2.4752814E-1,9.548562E-2,1.0366268E-2],"categories":[],"categories_nodes":[],"categories_segments":[],"categories_sizes":[],"default_left":[0,0,0,0,0],"id":50,"left_children":[1,-1,3,-1,-1],"loss_changes":[6.287885E-1,0E0,4.5571014E-2,0E0,0E0],"parents":[2147483647,0,0,2,2],"right_children":[2,-1,4,-1,-1],"split_conditions":[2.08E2,-1.0560993E-1,1.6E1,9.548562E-2,1.0366268E-2],"split_indices":[2,0,1,0,0],"split_type":[0,0,0,0,0],"sum_hessian":[5.0412827E0,2.2873895E0,2.7538931E0,1.6959572E0,1.057936E0],"tree_param":{"num_deleted":"0","num_feature":"7","num_nodes":"5","size_leaf_vector":"1"}},{"base_weights":[6.0857717E-2,1.05544984E-1,-1.1004562E-1,-1.0228954E-1,1.01095654E-1,7.268171E-2,-3.4953382E-2],"categories":[],"categories_nodes":[],"categories_segments":[],"categories_sizes":[],"default_left":[0,0,0,0,0,0,0],"id":51,"left_children":[1,-1,3,-1,5,-1,-1],"loss_changes":[4.408688E-1,0E0,3.200157E-1,0E0,1.4590731E-1,0E0,0E0],"parents":[2147483647,0,0,2,2,4,4],"right_children":[2,-1,4,-1,6,-1,-1],"split_conditions":[4.09E1,1.05544984E-1,1.75E1,-1.0228954E-1,4.44E1,7.268171E-2,-3.4953382E-2],"split_indices":[0,0,1,0,0,0,0],"split_type":[0,0,0,0,0,0,0],"sum_hessian":[7.0874033E0,2.230855E0,4.8565483E0,2.025952E0,2.830596E0,1.6480459E0,1.1825501E0],"tree_param":{"num_deleted":"0","num_feature":"7","num_nodes":"7","size_leaf_vector":"1"}},{"base_weights":[-3.9776694E-2,-9.689307E-2,1.1287899E-1,-6.0633477E-2,9.553793E-2,3.9273947E-2,-8.589217E-2],"categories":[],"categories_nodes":[],"categories_segments":[],"categories_sizes":[],"default_left":[0,0,0,0,0,0,0],"id":52,"left_children":[1,-1,3,5,-1,-1,-1],"loss_changes":[3.4672803E-1,0E0,2.120825E-1,2.0047963E-1,0E0,0E0,0E0],"parents":[2147483647,0,0,2,2,3,3],"right_children":[2,-1,4,6,-1,-1,-1],"split_conditions":[1E0,-9.689307E-2,4.44E1,1E0,9.553793E-2,3.9273947E-2,-8.589217E-2],"split_indices":[5,0,0,4,0,0,0],"split_type":[0,0,0,0,0,0,0],"sum_hessian":[6.176856E0,1.7726294E0,4.4042263E0,2.7707472E0,1.6334794E0,1.7258157E0,1.0449315E0],"tree_param":{"num_deleted":"0","num_feature":"7","num_nodes":"7","size_leaf_vector":"1"}},{"base_weights":[-3.9051432E-2,-8.2469724E-2,8.694986E-2],"categories":[],"categories_nodes":[],"categories_segments":[],"categories_sizes":[],"default_left":[0,0,0],"id":53,"left_children":[1,-1,-1],"loss_changes":[4.902486E-1,0E0,0E0],"parents":[2147483647,0,0],"right_children":[2,-1,-1],"split_conditions":[2.11E2,-8.2469724E-2,8.694986E-2],"split_indices":[2,0,0],"split_type":[0,0,0],"sum_hessian":[4.2931786E0,2.595823E0,1.6973554E0],"tree_param":{"num_deleted":"0","num_feature":"7","num_nodes":"3","size_leaf_vector":"1"}},{"base_weights":[5.562554E-2,1.0022444E-1,-1.070767E-1,-8.287005E-2,4.2498693E-2],"categories":[],"categories_nodes":[],"categories_segments":[],"categories_sizes":[],"default_left":[0,0,0,0,0],"id":54,"left_children":[1,-1,3,-1,-1],"loss_changes":[3.6403793E-1,0E0,2.634244E-1,0E0,0E0],"parents":[2147483647,0,0,2,2],"right_children":[2,-1,4,-1,-1],"split_conditions":[4.09E1,1.0022444E-1,1.83E1,-8.287005E-2,4.2498693E-2],"split_indices":[0,0,1,0,0],"split_type":[0,0,0,0,0],"sum_hessian":[6.2456174E0,1.9149519E0,4.330665E0,2.5118961E0,1.8187691E0],"tree_param":{"num_deleted":"0","num_feature":"7","num_nodes":"5","size_leaf_vector":"1"}},{"base_weights":[-3.4389302E-2,-9.1271184E-2,1.0979069E-1,-5.2174993E-2,9.013262E-2,4.283655E-2,-6.644707E-2],"categories":[],"categories_nodes":[],"categories_segments":[],"categories_sizes":[],"default_left":[0,0,0,0,0,0,0],"id":55,"left_children":[1,-1,3,5,-1,-1,-1],"loss_changes":[2.8496876E-1,0E0,1.6849715E-1,1.4808206E-1,0E0,0E0,0E0],"parents":[2147483647,0,0,2,2,3,3],"right_children":[2,-1,4,6,-1,-1,-1],"split_conditions":[1E0,-9.1271184E-2,4.44E1,3.425E3,9.013262E-2,4.283655E-2,-6.644707E-2],"split_indices":[5,0,0,3,0,0,0],"split_type":[0,0,0,0,0,0,0],"sum_hessian":[5.465891E0,1.5168414E0,3.9490492E0,2.527864E0,1.4211853E0,1.2477605E0,1.2801036E0],"tree_param":{"num_deleted":"0","num_feature":"7","num_nodes":"7","size_leaf_vector":"1"}},{"base_weights":[-3.8515527E-2,7.955703E-2,-8.027129E-2],"categories":[],"categories_nodes":[],"categories_segments":[],"categories_sizes":[],"default_left":[0,0,0],"id":56,"left_children":[1,-1,-1],"loss_changes":[3.9730695E-1,0E0,0E0],"parents":[2147483647,0,0],"right_children":[2,-1,-1],"split_conditions":[1.65E1,7.955703E-2,-8.027129E-2],"split_indices":[1,0,0],"split_type":[0,0,0],"sum_hessian":[3.6912646E0,1.519198E0,2.1720667E0],"tree_param":{"num_deleted":"0","num_feature":"7","num_nodes":"3","size_leaf_vector":"1"}},{"base_weights":[5.217477E-2,9.507418E-2,-1.00252315E-1,-9.1457464E-2,8.983722E-2,8.479003E-2,-5.375905E-2],"categories":[],"categories_nodes":[],"categories_segments":[],"categories_sizes":[],"default_left":[0,0,0,0,0,0,0],"id":57,"left_children":[1,-1,3,-1,5,-1,-1],"loss_changes":[2.9896328E-1,0E0,2.20363E-1,0E0,2.2411953E-1,0E0,0E0],"parents":[2147483647,0,0,2,2,4,4],"right_children":[2,-1,4,-1,6,-1,-1],"split_conditions":[4.09E1,9.507418E-2,1E0,-9.1457464E-2,4.57E1,8.479003E-2,-5.375905E-2],"split_indices":[0,0,4,0,0,0,0],"split_type":[0,0,0,0,0,0,0],"sum_hessian":[5.621297E0,1.6596528E0,3.9616442E0,1.6171924E0,2.3444517E0,1.3362874E0,1.0081643E0],"tree_param":{"num_deleted":"0","num_feature":"7","num_nodes":"7","size_leaf_vector":"1"}},{"base_weights":[-3.0872766E-2,-8.585223E-2,1.0423983E-1,-3.660667E-2,2.1946742E-1,9.124434E-2,5.3753005E-3],"categories":[],"categories_nodes":[],"categories_segments":[],"categories_sizes":[],"default_left":[0,0,0,0,0,0,0],"id":58,"left_children":[1,-1,3,-1,5,-1,-1],"loss_changes":[2.3362166E-1,0E0,1.4661422E-1,0E0,5.2626014E-2,0E0,0E0],"parents":[2147483647,0,0,2,2,4,4],"right_children":[2,-1,4,-1,6,-1,-1],"split_conditions":[1E0,-8.585223E-2,4.24E1,-3.660667E-2,4.05E3,9.124434E-2,5.3753005E-3],"split_indices":[5,0,0,0,3,0,0],"split_type":[0,0,0,0,0,0,0],"sum_hessian":[4.907938E0,1.3115894E0,3.5963485E0,1.1936057E0,2.4027429E0,1.3334523E0,1.0692905E0],"tree_param":{"num_deleted":"0","num_feature":"7","num_nodes":"7","size_leaf_vector":"1"}},{"base_weights":[-3.8584895E-2,-8.394753E-2,6.554427E-2],"categories":[],"categories_nodes":[],"categories_segments":[],"categories_sizes":[],"default_left":[0,0,0],"id":59,"left_children":[1,-1,-1],"loss_changes":[3.2322523E-1,0E0,0E0],"parents":[2147483647,0,0],"right_children":[2,-1,-1],"split_conditions":[4.375E3,-8.394753E-2,6.554427E-2],"split_indices":[3,0,0],"split_type":[0,0,0],"sum_hessian":[3.226243E0,1.618679E0,1.6075641E0],"tree_param":{"num_deleted":"0","num_feature":"7","num_nodes":"3","size_leaf_vector":"1"}},{"base_weights":[4.986557E-2,8.928665E-2,-9.224588E-2,-8.669069E-2,8.971166E-2,-9.842773E-3,4.957096E-2],"categories":[],"categories_nodes":[],"categories_segments":[],"categories_sizes":[],"default_left":[0,0,0,0,0,0,0],"id":60,"left_children":[1,-1,3,-1,5,-1,-1],"loss_changes":[2.386047E-1,0E0,1.8966725E-1,0E0,3.4472242E-2,0E0,0E0],"parents":[2147483647,0,0,2,2,4,4],"right_children":[2,-1,4,-1,6,-1,-1],"split_conditions":[4.09E1,8.928665E-2,1.75E1,-8.669069E-2,4.1E3,-9.842773E-3,4.957096E-2],"split_indices":[0,0,1,0,3,0,0],"split_type":[0,0,0,0,0,0,0],"sum_hessian":[4.997046E0,1.4226013E0,3.5744448E0,1.4349449E0,2.1395E0,1.031585E0,1.1079149E0],"tree_param":{"num_deleted":"0","num_feature":"7","num_nodes":"7","size_leaf_vector":"1"}},{"base_weights":[-2.834123E-2,-8.040945E-2,9.917992E-2,-5.186278E-2,8.148291E-2,3.704043E-2,-5.9901536E-2],"categories":[],"categories_nodes":[],"categories_segments":[],"categories_sizes":[],"default_left":[0,0,0,0,0,0,0],"id":61,"left_children":[1,-1,3,5,-1,-1,-1],"loss_changes":[1.9081007E-1,0E0,1.2443565E-1,1.0494527E-1,0E0,0E0,0E0],"parents":[2147483647,0,0,2,2,3,3],"right_children":[2,-1,4,6,-1,-1,-1],"split_conditions":[1E0,-8.040945E-2,4.44E1,3.425E3,8.148291E-2,3.704043E-2,-5.9901536E-2],"split_indices":[5,0,0,3,0,0,0],"split_type":[0,0,0,0,0,0,0],"sum_hessian":[4.37293E0,1.1359416E0,3.2369885E0,2.0982316E0,1.138757E0,1.0350887E0,1.063143E0],"tree_param":{"num_deleted":"0","num_feature":"7","num_nodes":"7","size_leaf_vector":"1"}},{"base_weights":[-3.8089E-2,-8.4047526E-2,5.566895E-2],"categories":[],"categories_nodes":[],"categories_segments":[],"categories_sizes":[],"default_left":[0,0,0],"id":62,"left_children":[1,-1,-1],"loss_changes":[2.6060903E-1,0E0,0E0],"parents":[2147483647,0,0],"right_children":[2,-1,-1],"split_conditions":[2.08E2,-8.4047526E-2,5.566895E-2],"split_indices":[2,0,0],"split_type":[0,0,0],"sum_hessian":[2.8534255E0,1.2489619E0,1.6044635E0],"tree_param":{"num_deleted":"0","num_feature":"7","num_nodes":"3","size_leaf_vector":"1"}},{"base_weights":[4.6669945E-2,1.7202075E-1,-5.6953784E-2,3.4538729E-3,8.949588E-2],"categories":[],"categories_nodes":[],"categories_segments":[],"categories_sizes":[],"default_left":[0,0,0,0,0],"id":63,"left_children":[1,3,-1,-1,-1],"loss_changes":[1.9658269E-1,8.046055E-2,0E0,0E0,0E0],"parents":[2147483647,0,0,1,1],"right_children":[2,4,-1,-1,-1],"split_conditions":[4.44E1,1E0,-5.6953784E-2,3.4538729E-3,8.949588E-2],"split_indices":[0,4,0,0,0],"split_type":[0,0,0,0,0],"sum_hessian":[4.5291514E0,3.13848E0,1.3906713E0,1.8625723E0,1.2759078E0],"tree_param":{"num_deleted":"0","num_feature":"7","num_nodes":"5","size_leaf_vector":"1"}},{"base_weights":[-2.225774E-2,-1.1827558E-1,4.3485526E-2,1.9393135E-2,-8.329616E-2],"categories":[],"categories_nodes":[],"categories_segments":[],"categories_sizes":[],"default_left":[0,0,0,0,0],"id":64,"left_children":[1,3,-1,-1,-1],"loss_changes":[9.717452E-2,1.2631491E-1,0E0,0E0,0E0],"parents":[2147483647,0,0,1,1],"right_children":[2,4,-1,-1,-1],"split_conditions":[4.6E1,3.625E3,4.3485526E-2,1.9393135E-2,-8.329616E-2],"split_indices":[0,3,0,0,0],"split_type":[0,0,0,0,0],"sum_hessian":[3.984727E0,2.7171116E0,1.2676153E0,1.5418833E0,1.1752282E0],"tree_param":{"num_deleted":"0","num_feature":"7","num_nodes":"5","size_leaf_vector":"1"}},{"base_weights":[-4.1755013E-2,6.351839E-2,-6.917716E-2],"categories":[],"categories_nodes":[],"categories_segments":[],"categories_sizes":[],"default_left":[0,0,0],"id":65,"left_children":[1,-1,-1],"loss_changes":[2.1745244E-1,0E0,0E0],"parents":[2147483647,0,0],"right_children":[2,-1,-1],"split_conditions":[1.66E1,6.351839E-2,-6.917716E-2],"split_indices":[1,0,0],"split_type":[0,0,0],"sum_hessian":[2.5229166E0,1.025333E0,1.4975835E0],"tree_param":{"num_deleted":"0","num_feature":"7","num_nodes":"3","size_leaf_vector":"1"}},{"base_weights":[4.1133646E-2,8.2483396E-2,-9.572843E-2,-8.006345E-2,2.3373414E-2],"categories":[],"categories_nodes":[],"categories_segments":[],"categories_sizes":[],"default_left":[0,0,0,0,0],"id":66,"left_children":[1,-1,3,-1,-1],"loss_changes":[1.9352555E-1,0E0,1.4078572E-1,0E0,0E0],"parents":[2147483647,0,0,2,2],"right_children":[2,-1,4,-1,-1],"split_conditions":[4.09E1,8.2483396E-2,1E0,-8.006345E-2,2.3373414E-2],"split_indices":[0,0,4,0,0],"split_type":[0,0,0,0,0],"sum_hessian":[4.225196E0,1.1875331E0,3.037663E0,1.2593795E0,1.7782834E0],"tree_param":{"num_deleted":"0","num_feature":"7","num_nodes":"5","size_leaf_vector":"1"}},{"base_weights":[-2.0034129E-2,-1.0528559E-1,3.8540926E-2,1.7970743E-2,-7.751829E-2],"categories":[],"categories_nodes":[],"categories_segments":[],"categories_sizes":[],"default_left":[0,0,0,0,0],"id":67,"left_children":[1,3,-1,-1,-1],"loss_changes":[7.351296E-2,1.05511375E-1,0E0,0E0,0E0],"parents":[2147483647,0,0,1,1],"right_children":[2,4,-1,-1,-1],"split_conditions":[4.6E1,3.625E3,3.8540926E-2,1.7970743E-2,-7.751829E-2],"split_indices":[0,3,0,0,0],"split_type":[0,0,0,0,0],"sum_hessian":[3.7382405E0,2.559777E0,1.1784637E0,1.5241449E0,1.035632E0],"tree_param":{"num_deleted":"0","num_feature":"7","num_nodes":"5","size_leaf_vector":"1"}},{"base_weights":[-3.6037214E-2,-7.1728684E-2,5.4169495E-2],"categories":[],"categories_nodes":[],"categories_segments":[],"categories_sizes":[],"default_left":[0,0,0],"id":68,"left_children":[1,-1,-1],"loss_changes":[1.8963379E-1,0E0,0E0],"parents":[2147483647,0,0],"right_children":[2,-1,-1],"split_conditions":[4.375E3,-7.1728684E-2,5.4169495E-2],"split_indices":[3,0,0],"split_type":[0,0,0],"sum_hessian":[2.329965E0,1.1489812E0,1.1809839E0],"tree_param":{"num_deleted":"0","num_feature":"7","num_nodes":"3","size_leaf_vector":"1"}},{"base_weights":[3.6198124E-2,7.835689E-2,-9.40152E-2,-6.6658385E-2,3.020866E-2],"categories":[],"categories_nodes":[],"categories_segments":[],"categories_sizes":[],"default_left":[0,0,0,0,0],"id":69,"left_children":[1,-1,3,-1,-1],"loss_changes":[1.6857995E-1,0E0,1.1844182E-1,0E0,0E0],"parents":[2147483647,0,0,2,2],"right_children":[2,-1,4,-1,-1],"split_conditions":[4.09E1,7.835689E-2,1.83E1,-6.6658385E-2,3.020866E-2],"split_indices":[0,0,1,0,0],"split_type":[0,0,0,0,0],"sum_hessian":[3.916021E0,1.0668261E0,2.849195E0,1.6330168E0,1.2161782E0],"tree_param":{"num_deleted":"0","num_feature":"7","num_nodes":"5","size_leaf_vector":"1"}},{"base_weights":[-1.8953217E-2,-1.0256633E-1,3.6582325E-2,2.0475676E-2,-6.1934657E-2],"categories":[],"categories_nodes":[],"categories_segments":[],"categories_sizes":[],"default_left":[0,0,0,0,0],"id":70,"left_children":[1,3,-1,-1,-1],"loss_changes":[6.5422736E-2,7.3750354E-2,0E0,0E0,0E0],"parents":[2147483647,0,0,1,1],"right_children":[2,4,-1,-1,-1],"split_conditions":[4.6E1,3.425E3,3.6582325E-2,2.0475676E-2,-6.1934657E-2],"split_indices":[0,3,0,0,0],"split_type":[0,0,0,0,0],"sum_hessian":[3.4917607E0,2.3620474E0,1.1297133E0,1.0229508E0,1.3390965E0],"tree_param":{"num_deleted":"0","num_feature":"7","num_nodes":"5","size_leaf_vector":"1"}},{"base_weights":[-2.9376812E-2,-6.714886E-2,5.1092546E-2],"categories":[],"categories_nodes":[],"categories_segments":[],"categories_sizes":[],"default_left":[0,0,0],"id":71,"left_children":[1,-1,-1],"loss_changes":[1.6080439E-1,0E0,0E0],"parents":[2147483647,0,0],"right_children":[2,-1,-1],"split_conditions":[4.375E3,-6.714886E-2,5.1092546E-2],"split_indices":[3,0,0],"split_type":[0,0,0],"sum_hessian":[2.1595776E0,1.0328659E0,1.1267117E0],"tree_param":{"num_deleted":"0","num_feature":"7","num_nodes":"3","size_leaf_vector":"1"}},{"base_weights":[3.2240085E-2,6.0622476E-2,-1.135377E-1,-6.565421E-2,1.6670292E-2],"categories":[],"categories_nodes":[],"categories_segments":[],"categories_sizes":[],"default_left":[0,0,0,0,0],"id":72,"left_children":[1,-1,3,-1,-1],"loss_changes":[1.3807723E-1,0E0,6.812686E-2,0E0,0E0],"parents":[2147483647,0,0,2,2],"right_children":[2,-1,4,-1,-1],"split_conditions":[4.24E1,6.0622476E-2,1.83E1,-6.565421E-2,1.6670292E-2],"split_indices":[0,0,1,0,0],"split_type":[0,0,0,0,0],"sum_hessian":[3.6503527E0,1.5076811E0,2.1426716E0,1.1391332E0,1.0035385E0],"tree_param":{"num_deleted":"0","num_feature":"7","num_nodes":"5","size_leaf_vector":"1"}},{"base_weights":[-1.4925771E-2,-4.3207098E-2,7.443413E-2,-8.1971893E-4,3.4996163E-2],"categories":[],"categories_nodes":[],"categories_segments":[],"categories_sizes":[],"default_left":[0,0,0,0,0],"id":73,"left_children":[1,-1,3,-1,-1],"loss_changes":[6.028681E-2,0E0,1.0738859E-2,0E0,0E0],"parents":[2147483647,0,0,2,2],"right_children":[2,-1,4,-1,-1],"split_conditions":[4.24E1,-4.3207098E-2,4.6E1,-8.1971893E-4,3.4996163E-2],"split_indices":[0,0,0,0,0],"split_type":[0,0,0,0,0],"sum_hessian":[3.2966175E0,1.0982518E0,2.1983657E0,1.1081824E0,1.0901833E0],"tree_param":{"num_deleted":"0","num_feature":"7","num_nodes":"5","size_leaf_vector":"1"}},{"base_weights":[-2.8566096E-2],"categories":[],"categories_nodes":[],"categories_segments":[],"categories_sizes":[],"default_left":[0],"id":74,"left_children":[-1],"loss_changes":[0E0],"parents":[2147483647],"right_children":[-1],"split_conditions":[-8.569829E-3],"split_indices":[0],"split_type":[0],"sum_hessian":[2.0034008E0],"tree_param":{"num_deleted":"0","num_feature":"7","num_nodes":"1","size_leaf_vector":"1"}},{"base_weights":[2.5425611E-2,1.3648558E-1,-4.9302414E-2,-8.198752E-3,6.691664E-2],"categories":[],"categories_nodes":[],"categories_segments":[],"categories_sizes":[],"default_left":[0,0,0,0,0],"id":75,"left_children":[1,3,-1,-1,-1],"loss_changes":[1.170436E-1,5.400361E-2,0E0,0E0,0E0],"parents":[2147483647,0,0,1,1],"right_children":[2,4,-1,-1,-1],"split_conditions":[4.44E1,1.75E1,-4.9302414E-2,-8.198752E-3,6.691664E-2],"split_indices":[0,1,0,0,0],"split_type":[0,0,0,0,0],"sum_hessian":[3.4892554E0,2.3782008E0,1.1110547E0,1.058856E0,1.3193449E0],"tree_param":{"num_deleted":"0","num_feature":"7","num_nodes":"5","size_leaf_vector":"1"}},{"base_weights":[-1.0230394E-2,2.7559761E-2,-3.338448E-2],"categories":[],"categories_nodes":[],"categories_segments":[],"categories_sizes":[],"default_left":[0,0,0],"id":76,"left_children":[1,-1,-1],"loss_changes":[5.34267E-2,0E0,0E0],"parents":[2147483647,0,0],"right_children":[2,-1,-1],"split_conditions":[3.825E3,2.7559761E-2,-3.338448E-2],"split_indices":[3,0,0],"split_type":[0,0,0],"sum_hessian":[3.187645E0,1.6308385E0,1.5568066E0],"tree_param":{"num_deleted":"0","num_feature":"7","num_nodes":"3","size_leaf_vector":"1"}},{"base_weights":[-2.414358E-2],"categories":[],"categories_nodes":[],"categories_segments":[],"categories_sizes":[],"default_left":[0],"id":77,"left_children":[-1],"loss_changes":[0E0],"parents":[2147483647],"right_children":[-1],"split_conditions":[-7.2430745E-3],"split_indices":[0],"split_type":[0],"sum_hessian":[1.9533232E0],"tree_param":{"num_deleted":"0","num_feature":"7","num_nodes":"1","size_leaf_vector":"1"}},{"base_weights":[2.3803517E-2,1.3021064E-1,-4.9739033E-2,-8.1556226E-4,5.6361713E-2],"categories":[],"categories_nodes":[],"categories_segments":[],"categories_sizes":[],"default_left":[0,0,0,0,0],"id":78,"left_children":[1,3,-1,-1,-1],"loss_changes":[1.09977156E-1,2.6313487E-2,0E0,0E0,0E0],"parents":[2147483647,0,0,1,1],"right_children":[2,4,-1,-1,-1],"split_conditions":[2E2,1.9E2,-4.9739033E-2,-8.1556226E-4,5.6361713E-2],"split_indices":[2,2,0,0,0],"split_type":[0,0,0,0,0],"sum_hessian":[3.3811371E0,2.3663404E0,1.0147969E0,1.0041952E0,1.3621451E0],"tree_param":{"num_deleted":"0","num_feature":"7","num_nodes":"5","size_leaf_vector":"1"}},{"base_weights":[-7.2744493E-3,2.5904832E-2,-3.0483091E-2],"categories":[],"categories_nodes":[],"categories_segments":[],"categories_sizes":[],"default_left":[0,0,0],"id":79,"left_children":[1,-1,-1],"loss_changes":[4.503296E-2,0E0,0E0],"parents":[2147483647,0,0],"right_children":[2,-1,-1],"split_conditions":[3.825E3,2.5904832E-2,-3.0483091E-2],"split_indices":[3,0,0],"split_type":[0,0,0],"sum_hessian":[3.1053672E0,1.601055E0,1.5043123E0],"tree_param":{"num_deleted":"0","num_feature":"7","num_nodes":"3","size_leaf_vector":"1"}},{"base_weights":[-2.561198E-2],"categories":[],"categories_nodes":[],"categories_segments":[],"categories_sizes":[],"default_left":[0],"id":80,"left_children":[-1],"loss_changes":[0E0],"parents":[2147483647],"right_children":[-1],"split_conditions":[-7.6835942E-3],"split_indices":[0],"split_type":[0],"sum_hessian":[1.9058406E0],"tree_param":{"num_deleted":"0","num_feature":"7","num_nodes":"1","size_leaf_vector":"1"}},{"base_weights":[2.1849075E-2,5.363476E-2,-3.3418894E-2],"categories":[],"categories_nodes":[],"categories_segments":[],"categories_sizes":[],"default_left":[0,0,0],"id":81,"left_children":[1,-1,-1],"loss_changes":[1.0980052E-1,0E0,0E0],"parents":[2147483647,0,0],"right_children":[2,-1,-1],"split_conditions":[4.24E1,5.363476E-2,-3.3418894E-2],"split_indices":[0,0,0],"split_type":[0,0,0],"sum_hessian":[3.298516E0,1.357697E0,1.940819E0],"tree_param":{"num_deleted":"0","num_feature":"7","num_nodes":"3","size_leaf_vector":"1"}},{"base_weights":[-3.4323093E-3,-2.4029993E-2,3.3051513E-2],"categories":[],"categories_nodes":[],"categories_segments":[],"categories_sizes":[],"default_left":[0,0,0],"id":82,"left_children":[1,-1,-1],"loss_changes":[4.4087123E-2,0E0,0E0],"parents":[2147483647,0,0],"right_children":[2,-1,-1],"split_conditions":[4.6E1,-2.4029993E-2,3.3051513E-2],"split_indices":[0,0,0],"split_type":[0,0,0],"sum_hessian":[3.0486064E0,1.9962928E0,1.0523137E0],"tree_param":{"num_deleted":"0","num_feature":"7","num_nodes":"3","size_leaf_vector":"1"}},{"base_weights":[-2.7973004E-2],"categories":[],"categories_nodes":[],"categories_segments":[],"categories_sizes":[],"default_left":[0],"id":83,"left_children":[-1],"loss_changes":[0E0],"parents":[2147483647],"right_children":[-1],"split_conditions":[-8.391902E-3],"split_indices":[0],"split_type":[0],"sum_hessian":[1.8606796E0],"tree_param":{"num_deleted":"0","num_feature":"7","num_nodes":"1","size_leaf_vector":"1"}},{"base_weights":[1.7086025E-2,1.1931555E-1,-4.5603808E-2,-9.264763E-3,6.118511E-2],"categories":[],"categories_nodes":[],"categories_segments":[],"categories_sizes":[],"default_left":[0,0,0,0,0],"id":84,"left_children":[1,3,-1,-1,-1],"loss_changes":[9.08056E-2,4.672366E-2,0E0,0E0,0E0],"parents":[2147483647,0,0,1,1],"right_children":[2,4,-1,-1,-1],"split_conditions":[4.44E1,1.75E1,-4.5603808E-2,-9.264763E-3,6.118511E-2],"split_indices":[0,1,0,0,0],"split_type":[0,0,0,0,0],"sum_hessian":[3.2036572E0,2.180081E0,1.0235764E0,1.0146066E0,1.1654743E0],"tree_param":{"num_deleted":"0","num_feature":"7","num_nodes":"5","size_leaf_vector":"1"}},{"base_weights":[-1.5123343E-3,2.5526447E-2,-3.246599E-2],"categories":[],"categories_nodes":[],"categories_segments":[],"categories_sizes":[],"default_left":[0,0,0],"id":85,"left_children":[1,-1,-1],"loss_changes":[4.5971893E-2,0E0,0E0],"parents":[2147483647,0,0],"right_children":[2,-1,-1],"split_conditions":[4.075E3,2.5526447E-2,-3.246599E-2],"split_indices":[3,0,0],"split_type":[0,0,0],"sum_hessian":[2.9783487E0,1.7559118E0,1.222437E0],"tree_param":{"num_deleted":"0","num_feature":"7","num_nodes":"3","size_leaf_vector":"1"}},{"base_weights":[-2.3201393E-2],"categories":[],"categories_nodes":[],"categories_segments":[],"categories_sizes":[],"default_left":[0],"id":86,"left_children":[-1],"loss_changes":[0E0],"parents":[2147483647],"right_children":[-1],"split_conditions":[-6.960418E-3],"split_indices":[0],"split_type":[0],"sum_hessian":[1.8364784E0],"tree_param":{"num_deleted":"0","num_feature":"7","num_nodes":"1","size_leaf_vector":"1"}},{"base_weights":[1.7322695E-2,4.8635665E-2,-3.133654E-2],"categories":[],"categories_nodes":[],"categories_segments":[],"categories_sizes":[],"default_left":[0,0,0],"id":87,"left_children":[1,-1,-1],"loss_changes":[8.954098E-2,0E0,0E0],"parents":[2147483647,0,0],"right_children":[2,-1,-1],"split_conditions":[4.24E1,4.8635665E-2,-3.133654E-2],"split_indices":[0,0,0],"split_type":[0,0,0],"sum_hessian":[3.1176765E0,1.2729026E0,1.8447738E0],"tree_param":{"num_deleted":"0","num_feature":"7","num_nodes":"3","size_leaf_vector":"1"}},{"base_weights":[-7.0557493E-4,2.3923432E-2,-3.0133072E-2],"categories":[],"categories_nodes":[],"categories_segments":[],"categories_sizes":[],"default_left":[0,0,0],"id":88,"left_children":[1,-1,-1],"loss_changes":[3.9389014E-2,0E0,0E0],"parents":[2147483647,0,0],"right_children":[2,-1,-1],"split_conditions":[4.075E3,2.3923432E-2,-3.0133072E-2],"split_indices":[3,0,0],"split_type":[0,0,0],"sum_hessian":[2.9106846E0,1.7220819E0,1.1886028E0],"tree_param":{"num_deleted":"0","num_feature":"7","num_nodes":"3","size_leaf_vector":"1"}},{"base_weights":[-2.453241E-2],"categories":[],"categories_nodes":[],"categories_segments":[],"categories_sizes":[],"default_left":[0],"id":89,"left_children":[-1],"loss_changes":[0E0],"parents":[2147483647],"right_children":[-1],"split_conditions":[-7.359723E-3],"split_indices":[0],"split_type":[0],"sum_hessian":[1.7950207E0],"tree_param":{"num_deleted":"0","num_feature":"7","num_nodes":"1","size_leaf_vector":"1"}},{"base_weights":[1.8549243E-2,4.634581E-2,-2.8944982E-2],"categories":[],"categories_nodes":[],"categories_segments":[],"categories_sizes":[],"default_left":[0,0,0],"id":90,"left_children":[1,-1,-1],"loss_changes":[7.8276716E-2,0E0,0E0],"parents":[2147483647,0,0],"right_children":[2,-1,-1],"split_conditions":[4.24E1,4.634581E-2,-2.8944982E-2],"split_indices":[0,0,0],"split_type":[0,0,0],"sum_hessian":[3.0526175E0,1.2419716E0,1.810646E0],"tree_param":{"num_deleted":"0","num_feature":"7","num_nodes":"3","size_leaf_vector":"1"}},{"base_weights":[-1.1123384E-3,2.5589108E-2,-2.6982294E-2],"categories":[],"categories_nodes":[],"categories_segments":[],"categories_sizes":[],"default_left":[0,0,0],"id":91,"left_children":[1,-1,-1],"loss_changes":[3.7266042E-2,0E0,0E0],"parents":[2147483647,0,0],"right_children":[2,-1,-1],"split_conditions":[3.825E3,2.5589108E-2,-2.6982294E-2],"split_indices":[3,0,0],"split_type":[0,0,0],"sum_hessian":[2.8556268E0,1.4676785E0,1.3879482E0],"tree_param":{"num_deleted":"0","num_feature":"7","num_nodes":"3","size_leaf_vector":"1"}},{"base_weights":[-2.5638327E-2],"categories":[],"categories_nodes":[],"categories_segments":[],"categories_sizes":[],"default_left":[0],"id":92,"left_children":[-1],"loss_changes":[0E0],"parents":[2147483647],"right_children":[-1],"split_conditions":[-7.6914984E-3],"split_indices":[0],"split_type":[0],"sum_hessian":[1.7648728E0],"tree_param":{"num_deleted":"0","num_feature":"7","num_nodes":"1","size_leaf_vector":"1"}},{"base_weights":[1.9012067E-2,4.4101037E-2,-2.6872875E-2],"categories":[],"categories_nodes":[],"categories_segments":[],"categories_sizes":[],"default_left":[0,0,0],"id":93,"left_children":[1,-1,-1],"loss_changes":[6.865893E-2,0E0,0E0],"parents":[2147483647,0,0],"right_children":[2,-1,-1],"split_conditions":[4.24E1,4.4101037E-2,-2.6872875E-2],"split_indices":[0,0,0],"split_type":[0,0,0],"sum_hessian":[2.9926205E0,1.2112132E0,1.7814074E0],"tree_param":{"num_deleted":"0","num_feature":"7","num_nodes":"3","size_leaf_vector":"1"}},{"base_weights":[-7.660439E-4,2.2969732E-2,-2.824034E-2],"categories":[],"categories_nodes":[],"categories_segments":[],"categories_sizes":[],"default_left":[0,0,0],"id":94,"left_children":[1,-1,-1],"loss_changes":[3.4686662E-2,0E0,0E0],"parents":[2147483647,0,0],"right_children":[2,-1,-1],"split_conditions":[4.075E3,2.2969732E-2,-2.824034E-2],"split_indices":[3,0,0],"split_type":[0,0,0],"sum_hessian":[2.8057976E0,1.6331292E0,1.1726683E0],"tree_param":{"num_deleted":"0","num_feature":"7","num_nodes":"3","size_leaf_vector":"1"}},{"base_weights":[-2.664479E-2],"categories":[],"categories_nodes":[],"categories_segments":[],"categories_sizes":[],"default_left":[0],"id":95,"left_children":[-1],"loss_changes":[0E0],"parents":[2147483647],"right_children":[-1],"split_conditions":[-7.993437E-3],"split_indices":[0],"split_type":[0],"sum_hessian":[1.7395138E0],"tree_param":{"num_deleted":"0","num_feature":"7","num_nodes":"1","size_leaf_vector":"1"}},{"base_weights":[1.9768659E-2,4.2523943E-2,-2.4583623E-2],"categories":[],"categories_nodes":[],"categories_segments":[],"categories_sizes":[],"default_left":[0,0,0],"id":96,"left_children":[1,-1,-1],"loss_changes":[6.049717E-2,0E0,0E0],"parents":[2147483647,0,0],"right_children":[2,-1,-1],"split_conditions":[4.17E1,4.2523943E-2,-2.4583623E-2],"split_indices":[0,0,0],"split_type":[0,0,0],"sum_hessian":[2.9398928E0,1.1578249E0,1.7820678E0],"tree_param":{"num_deleted":"0","num_feature":"7","num_nodes":"3","size_leaf_vector":"1"}},{"base_weights":[-9.4137114E-4,2.4451287E-2,-2.5232894E-2],"categories":[],"categories_nodes":[],"categories_segments":[],"categories_sizes":[],"default_left":[0,0,0],"id":97,"left_children":[1,-1,-1],"loss_changes":[3.2638364E-2,0E0,0E0],"parents":[2147483647,0,0],"right_children":[2,-1,-1],"split_conditions":[3.825E3,2.4451287E-2,-2.5232894E-2],"split_indices":[3,0,0],"split_type":[0,0,0],"sum_hessian":[2.7601843E0,1.3961611E0,1.3640231E0],"tree_param":{"num_deleted":"0","num_feature":"7","num_nodes":"3","size_leaf_vector":"1"}},{"base_weights":[-2.7385343E-2],"categories":[],"categories_nodes":[],"categories_segments":[],"categories_sizes":[],"default_left":[0],"id":98,"left_children":[-1],"loss_changes":[0E0],"parents":[2147483647],"right_children":[-1],"split_conditions":[-8.215603E-3],"split_indices":[0],"split_type":[0],"sum_hessian":[1.7148104E0],"tree_param":{"num_deleted":"0","num_feature":"7","num_nodes":"1","size_leaf_vector":"1"}},{"base_weights":[1.9966016E-2,-3.0426474E-2,3.5024635E-2],"categories":[],"categories_nodes":[],"categories_segments":[],"categories_sizes":[],"default_left":[0,0,0],"id":99,"left_children":[1,-1,-1],"loss_changes":[5.7551067E-2,0E0,0E0],"parents":[2147483647,0,0],"right_children":[2,-1,-1],"split_conditions":[1.75E1,-3.0426474E-2,3.5024635E-2],"split_indices":[1,0,0],"split_type":[0,0,0],"sum_hessian":[2.8908186E0,1.2611364E0,1.6296822E0],"tree_param":{"num_deleted":"0","num_feature":"7","num_nodes":"3","size_leaf_vector":"1"}},{"base_weights":[-4.3137438E-4,2.2117322E-2,-2.6434956E-2],"categories":[],"categories_nodes":[],"categories_segments":[],"categories_sizes":[],"default_left":[0,0,0],"id":100,"left_children":[1,-1,-1],"loss_changes":[3.068043E-2,0E0,0E0],"parents":[2147483647,0,0],"right_children":[2,-1,-1],"split_conditions":[4.075E3,2.2117322E-2,-2.6434956E-2],"split_indices":[3,0,0],"split_type":[0,0,0],"sum_hessian":[2.719279E0,1.5595629E0,1.159716E0],"tree_param":{"num_deleted":"0","num_feature":"7","num_nodes":"3","size_leaf_vector":"1"}},{"base_weights":[-2.8245179E-2],"categories":[],"categories_nodes":[],"categories_segments":[],"categories_sizes":[],"default_left":[0],"id":101,"left_children":[-1],"loss_changes":[0E0],"parents":[2147483647],"right_children":[-1],"split_conditions":[-8.473554E-3],"split_indices":[0],"split_type":[0],"sum_hessian":[1.6935017E0],"tree_param":{"num_deleted":"0","num_feature":"7","num_nodes":"1","size_leaf_vector":"1"}},{"base_weights":[1.8798588E-2,4.2086463E-2,-2.4897948E-2],"categories":[],"categories_nodes":[],"categories_segments":[],"categories_sizes":[],"default_left":[0,0,0],"id":102,"left_children":[1,-1,-1],"loss_changes":[5.9348986E-2,0E0,0E0],"parents":[2147483647,0,0],"right_children":[2,-1,-1],"split_conditions":[4.17E1,4.2086463E-2,-2.4897948E-2],"split_indices":[0,0,0],"split_type":[0,0,0],"sum_hessian":[2.8576384E0,1.1303563E0,1.7272819E0],"tree_param":{"num_deleted":"0","num_feature":"7","num_nodes":"3","size_leaf_vector":"1"}},{"base_weights":[7.847346E-4,-1.9598104E-2,2.6436627E-2],"categories":[],"categories_nodes":[],"categories_segments":[],"categories_sizes":[],"default_left":[0,0,0],"id":103,"left_children":[1,-1,-1],"loss_changes":[2.712083E-2,0E0,0E0],"parents":[2147483647,0,0],"right_children":[2,-1,-1],"split_conditions":[4.57E1,-1.9598104E-2,2.6436627E-2],"split_indices":[0,0,0],"split_type":[0,0,0],"sum_hessian":[2.7000325E0,1.6801925E0,1.0198399E0],"tree_param":{"num_deleted":"0","num_feature":"7","num_nodes":"3","size_leaf_vector":"1"}},{"base_weights":[-2.8323704E-2],"categories":[],"categories_nodes":[],"categories_segments":[],"categories_sizes":[],"default_left":[0],"id":104,"left_children":[-1],"loss_changes":[0E0],"parents":[2147483647],"right_children":[-1],"split_conditions":[-8.4971115E-3],"split_indices":[0],"split_type":[0],"sum_hessian":[1.6628631E0],"tree_param":{"num_deleted":"0","num_feature":"7","num_nodes":"1","size_leaf_vector":"1"}},{"base_weights":[1.5096848E-2,-2.9672092E-2,3.2477796E-2],"categories":[],"categories_nodes":[],"categories_segments":[],"categories_sizes":[],"default_left":[0,0,0],"id":105,"left_children":[1,-1,-1],"loss_changes":[5.108009E-2,0E0,0E0],"parents":[2147483647,0,0],"right_children":[2,-1,-1],"split_conditions":[1.75E1,-2.9672092E-2,3.2477796E-2],"split_indices":[1,0,0],"split_type":[0,0,0],"sum_hessian":[2.8012385E0,1.2319852E0,1.5692532E0],"tree_param":{"num_deleted":"0","num_feature":"7","num_nodes":"3","size_leaf_vector":"1"}},{"base_weights":[1.9468046E-3,2.2569437E-2,-2.5503779E-2],"categories":[],"categories_nodes":[],"categories_segments":[],"categories_sizes":[],"default_left":[0,0,0],"id":106,"left_children":[1,-1,-1],"loss_changes":[2.9703714E-2,0E0,0E0],"parents":[2147483647,0,0],"right_children":[2,-1,-1],"split_conditions":[4.075E3,2.2569437E-2,-2.5503779E-2],"split_indices":[3,0,0],"split_type":[0,0,0],"sum_hessian":[2.65744E0,1.5152969E0,1.1421429E0],"tree_param":{"num_deleted":"0","num_feature":"7","num_nodes":"3","size_leaf_vector":"1"}},{"base_weights":[-2.4352524E-2],"categories":[],"categories_nodes":[],"categories_segments":[],"categories_sizes":[],"default_left":[0],"id":107,"left_children":[-1],"loss_changes":[0E0],"parents":[2147483647],"right_children":[-1],"split_conditions":[-7.3057576E-3],"split_indices":[0],"split_type":[0],"sum_hessian":[1.6489229E0],"tree_param":{"num_deleted":"0","num_feature":"7","num_nodes":"1","size_leaf_vector":"1"}},{"base_weights":[1.4675929E-2,3.937828E-2,-2.5194554E-2],"categories":[],"categories_nodes":[],"categories_segments":[],"categories_sizes":[],"default_left":[0,0,0],"id":108,"left_children":[1,-1,-1],"loss_changes":[5.4409683E-2,0E0,0E0],"parents":[2147483647,0,0],"right_children":[2,-1,-1],"split_conditions":[4.24E1,3.937828E-2,-2.5194554E-2],"split_indices":[0,0,0],"split_type":[0,0,0],"sum_hessian":[2.772047E0,1.1191123E0,1.6529348E0],"tree_param":{"num_deleted":"0","num_feature":"7","num_nodes":"3","size_leaf_vector":"1"}},{"base_weights":[2.6800323E-3,2.0406175E-2,-2.265488E-2],"categories":[],"categories_nodes":[],"categories_segments":[],"categories_sizes":[],"default_left":[0,0,0],"id":109,"left_children":[1,-1,-1],"loss_changes":[2.3736162E-2,0E0,0E0],"parents":[2147483647,0,0],"right_children":[2,-1,-1],"split_conditions":[4.075E3,2.0406175E-2,-2.265488E-2],"split_indices":[3,0,0],"split_type":[0,0,0],"sum_hessian":[2.6402593E0,1.5092584E0,1.1310009E0],"tree_param":{"num_deleted":"0","num_feature":"7","num_nodes":"3","size_leaf_vector":"1"}},{"base_weights":[-2.4845392E-2],"categories":[],"categories_nodes":[],"categories_segments":[],"categories_sizes":[],"default_left":[0],"id":110,"left_children":[-1],"loss_changes":[0E0],"parents":[2147483647],"right_children":[-1],"split_conditions":[-7.4536176E-3],"split_indices":[0],"split_type":[0],"sum_hessian":[1.6207371E0],"tree_param":{"num_deleted":"0","num_feature":"7","num_nodes":"1","size_leaf_vector":"1"}},{"base_weights":[1.5671989E-2,3.1056464E-2,-3.1931963E-2],"categories":[],"categories_nodes":[],"categories_segments":[],"categories_sizes":[],"default_left":[0,0,0],"id":111,"left_children":[1,-1,-1],"loss_changes":[5.1045276E-2,0E0,0E0],"parents":[2147483647,0,0],"right_children":[2,-1,-1],"split_conditions":[1.97E2,3.1056464E-2,-3.1931963E-2],"split_indices":[2,0,0],"split_type":[0,0,0],"sum_hessian":[2.731211E0,1.6769918E0,1.0542191E0],"tree_param":{"num_deleted":"0","num_feature":"7","num_nodes":"3","size_leaf_vector":"1"}},{"base_weights":[2.232891E-3,2.1639023E-2,-2.0479824E-2],"categories":[],"categories_nodes":[],"categories_segments":[],"categories_sizes":[],"default_left":[0,0,0],"id":112,"left_children":[1,-1,-1],"loss_changes":[2.2687644E-2,0E0,0E0],"parents":[2147483647,0,0],"right_children":[2,-1,-1],"split_conditions":[3.825E3,2.1639023E-2,-2.0479824E-2],"split_indices":[3,0,0],"split_type":[0,0,0],"sum_hessian":[2.6048625E0,1.296396E0,1.3084664E0],"tree_param":{"num_deleted":"0","num_feature":"7","num_nodes":"3","size_leaf_vector":"1"}},{"base_weights":[-2.556064E-2],"categories":[],"categories_nodes":[],"categories_segments":[],"categories_sizes":[],"default_left":[0],"id":113,"left_children":[-1],"loss_changes":[0E0],"parents":[2147483647],"right_children":[-1],"split_conditions":[-7.668192E-3],"split_indices":[0],"split_type":[0],"sum_hessian":[1.6025025E0],"tree_param":{"num_deleted":"0","num_feature":"7","num_nodes":"1","size_leaf_vector":"1"}},{"base_weights":[1.4052541E-2,3.716649E-2,-2.3193894E-2],"categories":[],"categories_nodes":[],"categories_segments":[],"categories_sizes":[],"default_left":[0,0,0],"id":114,"left_children":[1,-1,-1],"loss_changes":[4.6653908E-2,0E0,0E0],"parents":[2147483647,0,0],"right_children":[2,-1,-1],"split_conditions":[4.17E1,3.716649E-2,-2.3193894E-2],"split_indices":[0,0,0],"split_type":[0,0,0],"sum_hessian":[2.6945684E0,1.0619607E0,1.6326077E0],"tree_param":{"num_deleted":"0","num_feature":"7","num_nodes":"3","size_leaf_vector":"1"}},{"base_weights":[4.9958667E-3,-1.7390683E-2,2.3920324E-2],"categories":[],"categories_nodes":[],"categories_segments":[],"categories_sizes":[],"default_left":[0,0,0],"id":115,"left_children":[1,-1,-1],"loss_changes":[2.146219E-2,0E0,0E0],"parents":[2147483647,0,0],"right_children":[2,-1,-1],"split_conditions":[4.56E1,-1.7390683E-2,2.3920324E-2],"split_indices":[0,0,0],"split_type":[0,0,0],"sum_hessian":[2.5785034E0,1.5212642E0,1.0572393E0],"tree_param":{"num_deleted":"0","num_feature":"7","num_nodes":"3","size_leaf_vector":"1"}},{"base_weights":[-2.7032616E-2],"categories":[],"categories_nodes":[],"categories_segments":[],"categories_sizes":[],"default_left":[0],"id":116,"left_children":[-1],"loss_changes":[0E0],"parents":[2147483647],"right_children":[-1],"split_conditions":[-8.109785E-3],"split_indices":[0],"split_type":[0],"sum_hessian":[1.5820404E0],"tree_param":{"num_deleted":"0","num_feature":"7","num_nodes":"1","size_leaf_vector":"1"}},{"base_weights":[1.1380049E-2,-2.9363927E-2,3.0855468E-2],"categories":[],"categories_nodes":[],"categories_segments":[],"categories_sizes":[],"default_left":[0,0,0],"id":117,"left_children":[1,-1,-1],"loss_changes":[4.6534978E-2,0E0,0E0],"parents":[2147483647,0,0],"right_children":[2,-1,-1],"split_conditions":[1.75E1,-2.9363927E-2,3.0855468E-2],"split_indices":[1,0,0],"split_type":[0,0,0],"sum_hessian":[2.6489208E0,1.1751655E0,1.4737552E0],"tree_param":{"num_deleted":"0","num_feature":"7","num_nodes":"3","size_leaf_vector":"1"}},{"base_weights":[5.325384E-3,2.376049E-2,-2.1033263E-2],"categories":[],"categories_nodes":[],"categories_segments":[],"categories_sizes":[],"default_left":[0,0,0],"id":118,"left_children":[1,-1,-1],"loss_changes":[2.5302023E-2,0E0,0E0],"parents":[2147483647,0,0],"right_children":[2,-1,-1],"split_conditions":[3.825E3,2.376049E-2,-2.1033263E-2],"split_indices":[3,0,0],"split_type":[0,0,0],"sum_hessian":[2.5437489E0,1.2599449E0,1.2838039E0],"tree_param":{"num_deleted":"0","num_feature":"7","num_nodes":"3","size_leaf_vector":"1"}},{"base_weights":[-2.3488872E-2],"categories":[],"categories_nodes":[],"categories_segments":[],"categories_sizes":[],"default_left":[0],"id":119,"left_children":[-1],"loss_changes":[0E0],"parents":[2147483647],"right_children":[-1],"split_conditions":[-7.046662E-3],"split_indices":[0],"split_type":[0],"sum_hessian":[1.5712924E0],"tree_param":{"num_deleted":"0","num_feature":"7","num_nodes":"1","size_leaf_vector":"1"}},{"base_weights":[1.1040788E-2,3.5346795E-2,-2.3077652E-2],"categories":[],"categories_nodes":[],"categories_segments":[],"categories_sizes":[],"default_left":[0,0,0],"id":120,"left_children":[1,-1,-1],"loss_changes":[4.3091014E-2,0E0,0E0],"parents":[2147483647,0,0],"right_children":[2,-1,-1],"split_conditions":[4.17E1,3.5346795E-2,-2.3077652E-2],"split_indices":[0,0,0],"split_type":[0,0,0],"sum_hessian":[2.6225605E0,1.0312836E0,1.591277E0],"tree_param":{"num_deleted":"0","num_feature":"7","num_nodes":"3","size_leaf_vector":"1"}},{"base_weights":[5.9661544E-3,2.0173574E-2,-2.0303927E-2],"categories":[],"categories_nodes":[],"categories_segments":[],"categories_sizes":[],"default_left":[0,0,0],"id":121,"left_children":[1,-1,-1],"loss_changes":[2.0481972E-2,0E0,0E0],"parents":[2147483647,0,0],"right_children":[2,-1,-1],"split_conditions":[4.075E3,2.0173574E-2,-2.0303927E-2],"split_indices":[3,0,0],"split_type":[0,0,0],"sum_hessian":[2.5300226E0,1.4283972E0,1.1016256E0],"tree_param":{"num_deleted":"0","num_feature":"7","num_nodes":"3","size_leaf_vector":"1"}},{"base_weights":[-2.3968095E-2],"categories":[],"categories_nodes":[],"categories_segments":[],"categories_sizes":[],"default_left":[0],"id":122,"left_children":[-1],"loss_changes":[0E0],"parents":[2147483647],"right_children":[-1],"split_conditions":[-7.1904287E-3],"split_indices":[0],"split_type":[0],"sum_hessian":[1.5473437E0],"tree_param":{"num_deleted":"0","num_feature":"7","num_nodes":"1","size_leaf_vector":"1"}},{"base_weights":[1.2479396E-2,2.7971512E-2,-2.9279942E-2],"categories":[],"categories_nodes":[],"categories_segments":[],"categories_sizes":[],"default_left":[0,0,0],"id":123,"left_children":[1,-1,-1],"loss_changes":[4.1009344E-2,0E0,0E0],"parents":[2147483647,0,0],"right_children":[2,-1,-1],"split_conditions":[1.97E2,2.7971512E-2,-2.9279942E-2],"split_indices":[2,0,0],"split_type":[0,0,0],"sum_hessian":[2.589394E0,1.58186E0,1.0075341E0],"tree_param":{"num_deleted":"0","num_feature":"7","num_nodes":"3","size_leaf_vector":"1"}},{"base_weights":[5.1790923E-3,1.9560635E-2,-1.980425E-2],"categories":[],"categories_nodes":[],"categories_segments":[],"categories_sizes":[],"default_left":[0,0,0],"id":124,"left_children":[1,-1,-1],"loss_changes":[1.926444E-2,0E0,0E0],"parents":[2147483647,0,0],"right_children":[2,-1,-1],"split_conditions":[4.075E3,1.9560635E-2,-1.980425E-2],"split_indices":[3,0,0],"split_type":[0,0,0],"sum_hessian":[2.500903E0,1.4025588E0,1.098344E0],"tree_param":{"num_deleted":"0","num_feature":"7","num_nodes":"3","size_leaf_vector":"1"}},{"base_weights":[-2.485053E-2],"categories":[],"categories_nodes":[],"categories_segments":[],"categories_sizes":[],"default_left":[0],"id":125,"left_children":[-1],"loss_changes":[0E0],"parents":[2147483647],"right_children":[-1],"split_conditions":[-7.4551594E-3],"split_indices":[0],"split_type":[0],"sum_hessian":[1.532187E0],"tree_param":{"num_deleted":"0","num_feature":"7","num_nodes":"1","size_leaf_vector":"1"}},{"base_weights":[1.1711945E-2,-2.6662251E-2,2.875405E-2],"categories":[],"categories_nodes":[],"categories_segments":[],"categories_sizes":[],"default_left":[0,0,0],"id":126,"left_children":[1,-1,-1],"loss_changes":[3.864727E-2,0E0,0E0],"parents":[2147483647,0,0],"right_children":[2,-1,-1],"split_conditions":[1.75E1,-2.6662251E-2,2.875405E-2],"split_indices":[1,0,0],"split_type":[0,0,0],"sum_hessian":[2.5601645E0,1.1404219E0,1.4197426E0],"tree_param":{"num_deleted":"0","num_feature":"7","num_nodes":"3","size_leaf_vector":"1"}},{"base_weights":[6.855318E-3,-1.6033478E-2,2.283313E-2],"categories":[],"categories_nodes":[],"categories_segments":[],"categories_sizes":[],"default_left":[0,0,0],"id":127,"left_children":[1,-1,-1],"loss_changes":[1.8595973E-2,0E0,0E0],"parents":[2147483647,0,0],"right_children":[2,-1,-1],"split_conditions":[4.56E1,-1.6033478E-2,2.283313E-2],"split_indices":[0,0,0],"split_type":[0,0,0],"sum_hessian":[2.478905E0,1.4471576E0,1.0317472E0],"tree_param":{"num_deleted":"0","num_feature":"7","num_nodes":"3","size_leaf_vector":"1"}},{"base_weights":[-2.6070796E-2],"categories":[],"categories_nodes":[],"categories_segments":[],"categories_sizes":[],"default_left":[0],"id":128,"left_children":[-1],"loss_changes":[0E0],"parents":[2147483647],"right_children":[-1],"split_conditions":[-7.8212395E-3],"split_indices":[0],"split_type":[0],"sum_hessian":[1.5141339E0],"tree_param":{"num_deleted":"0","num_feature":"7","num_nodes":"1","size_leaf_vector":"1"}},{"base_weights":[8.014038E-3,3.26194E-2,-2.2912832E-2],"categories":[],"categories_nodes":[],"categories_segments":[],"categories_sizes":[],"default_left":[0,0,0],"id":129,"left_children":[1,-1,-1],"loss_changes":[3.8304485E-2,0E0,0E0],"parents":[2147483647,0,0],"right_children":[2,-1,-1],"split_conditions":[4.24E1,3.26194E-2,-2.2912832E-2],"split_indices":[0,0,0],"split_type":[0,0,0],"sum_hessian":[2.5296013E0,1.021743E0,1.5078584E0],"tree_param":{"num_deleted":"0","num_feature":"7","num_nodes":"3","size_leaf_vector":"1"}},{"base_weights":[7.614622E-3,2.1151952E-2,-1.7365314E-2],"categories":[],"categories_nodes":[],"categories_segments":[],"categories_sizes":[],"default_left":[0,0,0],"id":130,"left_children":[1,-1,-1],"loss_changes":[1.8352918E-2,0E0,0E0],"parents":[2147483647,0,0],"right_children":[2,-1,-1],"split_conditions":[3.825E3,2.1151952E-2,-1.7365314E-2],"split_indices":[3,0,0],"split_type":[0,0,0],"sum_hessian":[2.464545E0,1.2182932E0,1.246252E0],"tree_param":{"num_deleted":"0","num_feature":"7","num_nodes":"3","size_leaf_vector":"1"}},{"base_weights":[-2.1889215E-2],"categories":[],"categories_nodes":[],"categories_segments":[],"categories_sizes":[],"default_left":[0],"id":131,"left_children":[-1],"loss_changes":[0E0],"parents":[2147483647],"right_children":[-1],"split_conditions":[-6.566765E-3],"split_indices":[0],"split_type":[0],"sum_hessian":[1.4973947E0],"tree_param":{"num_deleted":"0","num_feature":"7","num_nodes":"1","size_leaf_vector":"1"}},{"base_weights":[9.336661E-3,-2.5787856E-2,2.7093543E-2],"categories":[],"categories_nodes":[],"categories_segments":[],"categories_sizes":[],"default_left":[0,0,0],"id":132,"left_children":[1,-1,-1],"loss_changes":[3.4766853E-2,0E0,0E0],"parents":[2147483647,0,0],"right_children":[2,-1,-1],"split_conditions":[1.75E1,-2.5787856E-2,2.7093543E-2],"split_indices":[1,0,0],"split_type":[0,0,0],"sum_hessian":[2.4994192E0,1.1199012E0,1.379518E0],"tree_param":{"num_deleted":"0","num_feature":"7","num_nodes":"3","size_leaf_vector":"1"}},{"base_weights":[7.0253923E-3,1.9353734E-2,-1.8498309E-2],"categories":[],"categories_nodes":[],"categories_segments":[],"categories_sizes":[],"default_left":[0,0,0],"id":133,"left_children":[1,-1,-1],"loss_changes":[1.7553562E-2,0E0,0E0],"parents":[2147483647,0,0],"right_children":[2,-1,-1],"split_conditions":[4.075E3,1.9353734E-2,-1.8498309E-2],"split_indices":[3,0,0],"split_type":[0,0,0],"sum_hessian":[2.4381118E0,1.3603425E0,1.0777693E0],"tree_param":{"num_deleted":"0","num_feature":"7","num_nodes":"3","size_leaf_vector":"1"}},{"base_weights":[-2.2862084E-2],"categories":[],"categories_nodes":[],"categories_segments":[],"categories_sizes":[],"default_left":[0],"id":134,"left_children":[-1],"loss_changes":[0E0],"parents":[2147483647],"right_children":[-1],"split_conditions":[-6.8586254E-3],"split_indices":[0],"split_type":[0],"sum_hessian":[1.4856343E0],"tree_param":{"num_deleted":"0","num_feature":"7","num_nodes":"1","size_leaf_vector":"1"}},{"base_weights":[9.514617E-3,3.2885447E-2,-2.271243E-2],"categories":[],"categories_nodes":[],"categories_segments":[],"categories_sizes":[],"default_left":[0,0,0],"id":135,"left_children":[1,-1,-1],"loss_changes":[3.7998106E-2,0E0,0E0],"parents":[2147483647,0,0],"right_children":[2,-1,-1],"split_conditions":[4.24E1,3.2885447E-2,-2.271243E-2],"split_indices":[0,0,0],"split_type":[0,0,0],"sum_hessian":[2.4812787E0,1.0093868E0,1.471892E0],"tree_param":{"num_deleted":"0","num_feature":"7","num_nodes":"3","size_leaf_vector":"1"}},{"base_weights":[6.8077217E-3,-1.8613715E-2,2.2836898E-2],"categories":[],"categories_nodes":[],"categories_segments":[],"categories_sizes":[],"default_left":[0,0,0],"id":136,"left_children":[1,-1,-1],"loss_changes":[2.1091416E-2,0E0,0E0],"parents":[2147483647,0,0],"right_children":[2,-1,-1],"split_conditions":[1.81E1,-1.8613715E-2,2.2836898E-2],"split_indices":[1,0,0],"split_type":[0,0,0],"sum_hessian":[2.4296458E0,1.2714971E0,1.1581486E0],"tree_param":{"num_deleted":"0","num_feature":"7","num_nodes":"3","size_leaf_vector":"1"}},{"base_weights":[-2.2905447E-2],"categories":[],"categories_nodes":[],"categories_segments":[],"categories_sizes":[],"default_left":[0],"id":137,"left_children":[-1],"loss_changes":[0E0],"parents":[2147483647],"right_children":[-1],"split_conditions":[-6.871634E-3],"split_indices":[0],"split_type":[0],"sum_hessian":[1.4653565E0],"tree_param":{"num_deleted":"0","num_feature":"7","num_nodes":"1","size_leaf_vector":"1"}},{"base_weights":[9.563016E-3,-2.522272E-2,2.6744165E-2],"categories":[],"categories_nodes":[],"categories_segments":[],"categories_sizes":[],"default_left":[0,0,0],"id":138,"left_children":[1,-1,-1],"loss_changes":[3.3224385E-2,0E0,0E0],"parents":[2147483647,0,0],"right_children":[2,-1,-1],"split_conditions":[1.75E1,-2.522272E-2,2.6744165E-2],"split_indices":[1,0,0],"split_type":[0,0,0],"sum_hessian":[2.45259E0,1.1008695E0,1.3517205E0],"tree_param":{"num_deleted":"0","num_feature":"7","num_nodes":"3","size_leaf_vector":"1"}},{"base_weights":[6.4660376E-3,1.8918311E-2,-1.8184083E-2],"categories":[],"categories_nodes":[],"categories_segments":[],"categories_sizes":[],"default_left":[0,0,0],"id":139,"left_children":[1,-1,-1],"loss_changes":[1.6720926E-2,0E0,0E0],"parents":[2147483647,0,0],"right_children":[2,-1,-1],"split_conditions":[4.075E3,1.8918311E-2,-1.8184083E-2],"split_indices":[3,0,0],"split_type":[0,0,0],"sum_hessian":[2.3976045E0,1.3329253E0,1.064679E0],"tree_param":{"num_deleted":"0","num_feature":"7","num_nodes":"3","size_leaf_vector":"1"}},{"base_weights":[-2.2473285E-2],"categories":[],"categories_nodes":[],"categories_segments":[],"categories_sizes":[],"default_left":[0],"id":140,"left_children":[-1],"loss_changes":[0E0],"parents":[2147483647],"right_children":[-1],"split_conditions":[-6.7419857E-3],"split_indices":[0],"split_type":[0],"sum_hessian":[1.4467986E0],"tree_param":{"num_deleted":"0","num_feature":"7","num_nodes":"1","size_leaf_vector":"1"}},{"base_weights":[9.6763875E-3,2.6884835E-2,-2.3568891E-2],"categories":[],"categories_nodes":[],"categories_segments":[],"categories_sizes":[],"default_left":[0,0,0],"id":141,"left_children":[1,-1,-1],"loss_changes":[3.1273346E-2,0E0,0E0],"parents":[2147483647,0,0],"right_children":[2,-1,-1],"split_conditions":[4.33E1,2.6884835E-2,-2.3568891E-2],"split_indices":[0,0,0],"split_type":[0,0,0],"sum_hessian":[2.4354155E0,1.2696153E0,1.1658002E0],"tree_param":{"num_deleted":"0","num_feature":"7","num_nodes":"3","size_leaf_vector":"1"}},{"base_weights":[6.3182823E-3,-1.8124513E-2,2.2063212E-2],"categories":[],"categories_nodes":[],"categories_segments":[],"categories_sizes":[],"default_left":[0,0,0],"id":142,"left_children":[1,-1,-1],"loss_changes":[1.9649833E-2,0E0,0E0],"parents":[2147483647,0,0],"right_children":[2,-1,-1],"split_conditions":[1.81E1,-1.8124513E-2,2.2063212E-2],"split_indices":[1,0,0],"split_type":[0,0,0],"sum_hessian":[2.3896556E0,1.2500616E0,1.1395938E0],"tree_param":{"num_deleted":"0","num_feature":"7","num_nodes":"3","size_leaf_vector":"1"}},{"base_weights":[-2.2516703E-2],"categories":[],"categories_nodes":[],"categories_segments":[],"categories_sizes":[],"default_left":[0],"id":143,"left_children":[-1],"loss_changes":[0E0],"parents":[2147483647],"right_children":[-1],"split_conditions":[-6.755011E-3],"split_indices":[0],"split_type":[0],"sum_hessian":[1.4275061E0],"tree_param":{"num_deleted":"0","num_feature":"7","num_nodes":"1","size_leaf_vector":"1"}},{"base_weights":[8.645189E-3,-2.4847586E-2,2.6191695E-2],"categories":[],"categories_nodes":[],"categories_segments":[],"categories_sizes":[],"default_left":[0,0,0],"id":144,"left_children":[1,-1,-1],"loss_changes":[3.17773E-2,0E0,0E0],"parents":[2147483647,0,0],"right_children":[2,-1,-1],"split_conditions":[1.75E1,-2.4847586E-2,2.6191695E-2],"split_indices":[1,0,0],"split_type":[0,0,0],"sum_hessian":[2.4115102E0,1.0904876E0,1.3210226E0],"tree_param":{"num_deleted":"0","num_feature":"7","num_nodes":"3","size_leaf_vector":"1"}},{"base_weights":[6.973433E-3,1.992952E-2,-1.6343402E-2],"categories":[],"categories_nodes":[],"categories_segments":[],"categories_sizes":[],"default_left":[0,0,0],"id":145,"left_children":[1,-1,-1],"loss_changes":[1.590304E-2,0E0,0E0],"parents":[2147483647,0,0],"right_children":[2,-1,-1],"split_conditions":[3.825E3,1.992952E-2,-1.6343402E-2],"split_indices":[3,0,0],"split_type":[0,0,0],"sum_hessian":[2.3619733E0,1.1592644E0,1.202709E0],"tree_param":{"num_deleted":"0","num_feature":"7","num_nodes":"3","size_leaf_vector":"1"}},{"base_weights":[-2.1961344E-2],"categories":[],"categories_nodes":[],"categories_segments":[],"categories_sizes":[],"default_left":[0],"id":146,"left_children":[-1],"loss_changes":[0E0],"parents":[2147483647],"right_children":[-1],"split_conditions":[-6.5884036E-3],"split_indices":[0],"split_type":[0],"sum_hessian":[1.4104613E0],"tree_param":{"num_deleted":"0","num_feature":"7","num_nodes":"1","size_leaf_vector":"1"}},{"base_weights":[8.565322E-3,2.5635589E-2,-2.2814311E-2],"categories":[],"categories_nodes":[],"categories_segments":[],"categories_sizes":[],"default_left":[0,0,0],"id":147,"left_children":[1,-1,-1],"loss_changes":[2.8583122E-2,0E0,0E0],"parents":[2147483647,0,0],"right_children":[2,-1,-1],"split_conditions":[4.33E1,2.5635589E-2,-2.2814311E-2],"split_indices":[0,0,0],"split_type":[0,0,0],"sum_hessian":[2.3947153E0,1.2494464E0,1.1452689E0],"tree_param":{"num_deleted":"0","num_feature":"7","num_nodes":"3","size_leaf_vector":"1"}},{"base_weights":[7.0952075E-3,-1.739208E-2,2.17237E-2],"categories":[],"categories_nodes":[],"categories_segments":[],"categories_sizes":[],"default_left":[0,0,0],"id":148,"left_children":[1,-1,-1],"loss_changes":[1.8456109E-2,0E0,0E0],"parents":[2147483647,0,0],"right_children":[2,-1,-1],"split_conditions":[1.81E1,-1.739208E-2,2.17237E-2],"split_indices":[1,0,0],"split_type":[0,0,0],"sum_hessian":[2.3547635E0,1.2359456E0,1.1188179E0],"tree_param":{"num_deleted":"0","num_feature":"7","num_nodes":"3","size_leaf_vector":"1"}},{"base_weights":[-2.2096813E-2],"categories":[],"categories_nodes":[],"categories_segments":[],"categories_sizes":[],"default_left":[0],"id":149,"left_children":[-1],"loss_changes":[0E0],"parents":[2147483647],"right_children":[-1],"split_conditions":[-6.629044E-3],"split_indices":[0],"split_type":[0],"sum_hessian":[1.3930721E0],"tree_param":{"num_deleted":"0","num_feature":"7","num_nodes":"1","size_leaf_vector":"1"}},{"base_weights":[7.668532E-3,-2.4379374E-2,2.5514344E-2],"categories":[],"categories_nodes":[],"categories_segments":[],"categories_sizes":[],"default_left":[0,0,0],"id":150,"left_children":[1,-1,-1],"loss_changes":[3.0120634E-2,0E0,0E0],"parents":[2147483647,0,0],"right_children":[2,-1,-1],"split_conditions":[1.75E1,-2.4379374E-2,2.5514344E-2],"split_indices":[1,0,0],"split_type":[0,0,0],"sum_hessian":[2.372664E0,1.0805553E0,1.2921087E0],"tree_param":{"num_deleted":"0","num_feature":"7","num_nodes":"3","size_leaf_vector":"1"}},{"base_weights":[7.6080463E-3,1.8488081E-2,-1.7150586E-2],"categories":[],"categories_nodes":[],"categories_segments":[],"categories_sizes":[],"default_left":[0,0,0],"id":151,"left_children":[1,-1,-1],"loss_changes":[1.5171151E-2,0E0,0E0],"parents":[2147483647,0,0],"right_children":[2,-1,-1],"split_conditions":[4.075E3,1.8488081E-2,-1.7150586E-2],"split_indices":[3,0,0],"split_type":[0,0,0],"sum_hessian":[2.328802E0,1.2963597E0,1.0324425E0],"tree_param":{"num_deleted":"0","num_feature":"7","num_nodes":"3","size_leaf_vector":"1"}},{"base_weights":[-2.1532048E-2],"categories":[],"categories_nodes":[],"categories_segments":[],"categories_sizes":[],"default_left":[0],"id":152,"left_children":[-1],"loss_changes":[0E0],"parents":[2147483647],"right_children":[-1],"split_conditions":[-6.4596147E-3],"split_indices":[0],"split_type":[0],"sum_hessian":[1.3771993E0],"tree_param":{"num_deleted":"0","num_feature":"7","num_nodes":"1","size_leaf_vector":"1"}},{"base_weights":[8.042503E-3,2.4549305E-2,-2.197664E-2],"categories":[],"categories_nodes":[],"categories_segments":[],"categories_sizes":[],"default_left":[0,0,0],"id":153,"left_children":[1,-1,-1],"loss_changes":[2.6135057E-2,0E0,0E0],"parents":[2147483647,0,0],"right_children":[2,-1,-1],"split_conditions":[4.33E1,2.4549305E-2,-2.197664E-2],"split_indices":[0,0,0],"split_type":[0,0,0],"sum_hessian":[2.3573883E0,1.2323306E0,1.1250576E0],"tree_param":{"num_deleted":"0","num_feature":"7","num_nodes":"3","size_leaf_vector":"1"}},{"base_weights":[7.215249E-3,-1.6819835E-2,2.1250637E-2],"categories":[],"categories_nodes":[],"categories_segments":[],"categories_sizes":[],"default_left":[0,0,0],"id":154,"left_children":[1,-1,-1],"loss_changes":[1.7344993E-2,0E0,0E0],"parents":[2147483647,0,0],"right_children":[2,-1,-1],"split_conditions":[1.81E1,-1.6819835E-2,2.1250637E-2],"split_indices":[1,0,0],"split_type":[0,0,0],"sum_hessian":[2.321812E0,1.2235329E0,1.0982789E0],"tree_param":{"num_deleted":"0","num_feature":"7","num_nodes":"3","size_leaf_vector":"1"}},{"base_weights":[-2.1598771E-2],"categories":[],"categories_nodes":[],"categories_segments":[],"categories_sizes":[],"default_left":[0],"id":155,"left_children":[-1],"loss_changes":[0E0],"parents":[2147483647],"right_children":[-1],"split_conditions":[-6.4796316E-3],"split_indices":[0],"split_type":[0],"sum_hessian":[1.3598166E0],"tree_param":{"num_deleted":"0","num_feature":"7","num_nodes":"1","size_leaf_vector":"1"}},{"base_weights":[7.19467E-3,-2.3924595E-2,2.5053157E-2],"categories":[],"categories_nodes":[],"categories_segments":[],"categories_sizes":[],"default_left":[0,0,0],"id":156,"left_children":[1,-1,-1],"loss_changes":[2.8801437E-2,0E0,0E0],"parents":[2147483647,0,0],"right_children":[2,-1,-1],"split_conditions":[1.75E1,-2.3924595E-2,2.5053157E-2],"split_indices":[1,0,0],"split_type":[0,0,0],"sum_hessian":[2.3370125E0,1.0714148E0,1.2655977E0],"tree_param":{"num_deleted":"0","num_feature":"7","num_nodes":"3","size_leaf_vector":"1"}},{"base_weights":[7.679202E-3,1.8062416E-2,-1.6645346E-2],"categories":[],"categories_nodes":[],"categories_segments":[],"categories_sizes":[],"default_left":[0,0,0],"id":157,"left_children":[1,-1,-1],"loss_changes":[1.4281258E-2,0E0,0E0],"parents":[2147483647,0,0],"right_children":[2,-1,-1],"split_conditions":[4.075E3,1.8062416E-2,-1.6645346E-2],"split_indices":[3,0,0],"split_type":[0,0,0],"sum_hessian":[2.2974453E0,1.2798643E0,1.017581E0],"tree_param":{"num_deleted":"0","num_feature":"7","num_nodes":"3","size_leaf_vector":"1"}},{"base_weights":[-2.1035349E-2],"categories":[],"categories_nodes":[],"categories_segments":[],"categories_sizes":[],"default_left":[0],"id":158,"left_children":[-1],"loss_changes":[0E0],"parents":[2147483647],"right_children":[-1],"split_conditions":[-6.310605E-3],"split_indices":[0],"split_type":[0],"sum_hessian":[1.3450096E0],"tree_param":{"num_deleted":"0","num_feature":"7","num_nodes":"1","size_leaf_vector":"1"}},{"base_weights":[7.621082E-3,2.3569293E-2,-2.1200199E-2],"categories":[],"categories_nodes":[],"categories_segments":[],"categories_sizes":[],"default_left":[0,0,0],"id":159,"left_children":[1,-1,-1],"loss_changes":[2.4005644E-2,0E0,0E0],"parents":[2147483647,0,0],"right_children":[2,-1,-1],"split_conditions":[4.33E1,2.3569293E-2,-2.1200199E-2],"split_indices":[0,0,0],"split_type":[0,0,0],"sum_hessian":[2.3225794E0,1.2165996E0,1.1059799E0],"tree_param":{"num_deleted":"0","num_feature":"7","num_nodes":"3","size_leaf_vector":"1"}},{"base_weights":[7.240502E-3,-1.6315453E-2,2.0796617E-2],"categories":[],"categories_nodes":[],"categories_segments":[],"categories_sizes":[],"default_left":[0,0,0],"id":160,"left_children":[1,-1,-1],"loss_changes":[1.6360529E-2,0E0,0E0],"parents":[2147483647,0,0],"right_children":[2,-1,-1],"split_conditions":[1.81E1,-1.6315453E-2,2.0796617E-2],"split_indices":[1,0,0],"split_type":[0,